{"HiddenLayer":[0.742010232054469,0.17450021901566976,0.7058535129598091,0.8597241925366998,0.8636935779203985,0.0009733777889135921,0.9778147357198302,0.0026299954429211347,0.00046861425602524116,0.8312134299803421,0.2108764943602895,0.00027071590937493954,0.021636221207757586,0.96271704673565,0.0034750820500073745,0.9995616505537286,1],"InputLayer":[0.9,1,2,1],"OutputLayer":[0.9991470014297711,0.0012632256193247273,1.8453406656701756e-8,0.0004414824652950935],"WeightHidden":[[10.096332756293581,1.8807334227494972,-4.130993133777439,-1.6489989677342445],[-12.956893249067736,-3.1504523982466086,5.025229264547193,3.207129430587609],[-0.28458364140549053,-0.48372055469461683,0.9755496276116361,-0.33592237023892146],[5.291944915964073,0.21020915199880158,-1.2217059255146994,-0.7165463343778867],[7.028385867514886,2.572197981687457,-1.652980496847065,-3.7454691495099888],[0.6209313802633681,-0.022087656838169042,-4.452266706164378,1.4340184965580658],[0.5796404025761973,0.4047724505395182,1.9232030640824083,-0.9869634451913717],[2.105173640865705,0.808528216817838,-4.262926713426887,-0.11547073665975859],[-10.844824084538763,-3.805264343500253,3.2766693035881844,-0.6529896948288761],[1.3396349186342382,1.4591232395448401,-1.061675870781089,1.0528066295823457],[-1.1340883280608536,0.4387425295378845,-0.45731378170749626,0.17691369753446326],[0.7845799364957806,0.220674608910221,-5.389826496269999,1.6386867416007662],[-4.722550778018067,-1.8169583205260276,1.2206759446065443,-0.18560764254746975],[3.3582542598676146,2.252712959750015,-1.598847442170927,1.1737731368241993],[-8.377897244826046,-2.5290680482483947,2.4481261607680085,-0.485728454893737],[-1.366512269045282,-0.04157147201513064,5.085533189182026,-1.1675782226827325],[-0.7613422259478415,0.5494184054811244,-0.7771593508314611,0.23543464361189326]],"WeightOutput":[[6.954741645434402,-9.266973380593472,-0.9159673852190244,2.5103100598479493,2.2646781932046323,-5.034681171409003,0.12099694106129626,-3.4356001737458324,-2.346729027066129,-0.7151096652944707,-1.6932768009666495,-6.24083983975293,-1.9501401238334428,-1.436573571990753,-2.881993497574205,4.112403928276291,-1.7706081186818075],[-5.733389422678313,9.673166927424072,-1.220499839359563,-1.532450476748853,-6.456412425983371,-0.8408116066065907,0.10813138057768709,-2.204746191141717,-10.77905632500592,1.0393760887584766,0.29473374557665044,-2.109025794282532,-3.1813541275105415,2.4174577951357454,-6.54674082140715,0.26294265761999225,0.1306142636438879],[-5.212064776372848,2.9649688685698834,0.10945804507815993,-4.216217253506141,-2.0121376683732004,0.11527286524553076,-1.1701360940660626,-1.689944920860361,4.922139765015413,-2.081579309553008,0.049685087688250223,0.5771877699850358,2.9450677931307148,-3.8332841304229195,4.946325967461867,-1.157530529348141,-1.5403164983734636],[1.5853938552606264,-1.8686811045698644,-1.4835858792528593,-0.18928351156416426,-0.7301989186971285,2.1159883079120294,-2.322129473810108,3.3732410410436895,-0.12646714120942315,0.7459485933396843,-0.08098610476731662,2.5518689314105782,-0.8261359165517712,-0.3562921227191047,-2.012406584473689,-4.604740806323052,-0.10794646146343931]],"ErrOutput":[-0.0008529985702289133,0.0012632256193247273,1.8453406656701756e-8,0.0004414824652950935],"ErrHidden":[-0.000013884566716548121,0.000021789253034151487,-0.0000015682754724313194,-0.000004304137365968295,-0.0000120783805319248,0.000002732359758157688,-3.6802890879694816e-7,-3.5894493183921833e-7,-0.000015497430512546627,0.000002321679928752685,0.0000016849352463527995,0.0000016729563099423997,-0.000003813421074235378,0.000004827715505252809,-0.00000873058158593352,-0.0000034676989179456048,0],"LastChangeHidden":[[-5.992525595634324e-7,-6.647312518623902e-7,-0.0000013402240156575871,-6.757242137993332e-7],[7.069055148554267e-7,7.850149857970374e-7,0.0000015749613731252426,7.902712939543837e-7],[-9.494638463257985e-8,-8.137087073220228e-8,-3.797602985886457e-7,-2.9793208393368554e-7],[-9.765105936821283e-8,-1.2931589531135537e-7,-6.97708921000729e-8,5.933357592158801e-8],[-3.2332726063438256e-7,-3.5568651573393344e-7,-7.443084029675553e-7,-3.8806553276246015e-7],[-3.31654788056977e-9,-5.976269823942095e-10,-3.037613508123663e-8,-3.2336368685791495e-8],[1.2855440014459937e-8,-1.161122841256144e-9,1.379731540573511e-7,1.4080332000698285e-7],[-1.8371043776958674e-9,-1.286500486106164e-9,-1.0625424299385887e-8,-1.1459563328488197e-8],[-1.564362922386825e-7,-3.981437573465012e-9,-0.0000015473247397569815,-0.0000015390130332183619],[1.2110325883996917e-7,8.227321832929607e-8,6.393583957943862e-7,5.551731681715751e-7],[6.72885785778964e-8,6.958837455984845e-8,1.8553584437352064e-7,1.1469980533647944e-7],[-4.976450477631029e-9,-9.081940031152268e-10,-4.451360862905899e-8,-4.5673412462906716e-8],[-1.1044175362238867e-7,-2.240256368156336e-8,-9.58573063992681e-7,-9.317897342996692e-7],[1.3645919828523564e-7,4.5107642024743316e-8,0.0000010577799725512931,0.000001009103731681286],[-1.4654467369732723e-7,-9.659595905277555e-9,-0.0000014083040356485764,-0.000001394451000435485],[2.1868111450884312e-9,8.911104794574592e-10,1.7178537498045443e-8,1.8850159276598756e-8],[0,0,0,0]],"LastChangeOutput":[[-1.3345970319544987e-7,-3.1741098095322194e-8,-1.2794971487714264e-7,-1.549430803318324e-7,-1.5562491287820097e-7,1.107092222375784e-9,-1.771653269239794e-7,8.343831208514823e-10,-8.533719985930493e-11,-1.497376509766733e-7,-3.765013369418592e-8,1.320898106755081e-9,-3.926471501691975e-9,-1.7360356839618335e-7,-6.322971768409461e-10,-1.81626938672205e-7,-1.8037794643575741e-7],[3.0185717550630034e-7,7.990371744667932e-7,7.550674561015061e-7,4.858780413114958e-7,3.508355076802601e-7,3.6426029122590096e-8,9.230803980587831e-7,1.2167982601499911e-8,6.01498216894084e-7,7.188125782003947e-7,3.7777518878228024e-7,1.816851357040792e-8,4.7364356485798737e-7,7.322068984205364e-7,5.527126471564067e-7,0.0000011123264157423538,0.0000011287447536150727],[-4.609681246168809e-9,-5.492106215437687e-7,-3.567557438555209e-7,-1.0782627740820741e-7,-5.0015885853263224e-9,-2.711542436163387e-8,-4.01634344093326e-7,-8.362202254504457e-9,-4.5272477933091964e-7,-2.917043189596835e-7,-2.210664436214661e-7,-1.3588116031261792e-8,-3.500696349975145e-7,-2.6234445527510144e-7,-4.1509889094393034e-7,-5.375221770320877e-7,-5.497428334190613e-7],[3.492739327606358e-8,8.527573748745198e-9,3.412114016820245e-8,4.0749002759881824e-8,4.0850686314373e-8,-1.1230063419730188e-9,4.7170047549834024e-8,-1.0719504552408879e-9,3.0263067792150626e-11,3.929409279636285e-8,9.649964831226817e-9,-1.2395681342072733e-9,1.0594741269283405e-9,4.5685662762064135e-8,1.768762300344897e-10,4.8707994992692445e-8,4.751710281594897e-8]],"Regression":false,"Rate1":0.25,"Rate2":0.1}
