{"HiddenLayer":[9.082914036364596e-12,4.1032436197912254e-10,0.9912047744853963,2.1124291761040584e-29,7.448119944930766e-29,5.238206560131286e-16,6.104451962638363e-22,1.2108660131945434e-25,6.955967264221351e-17,8.74251263621778e-15,8.38840574265077e-38,0.3005839039450652,4.836236848900504e-8,2.3329199214525594e-11,1],"InputLayer":[0,0,0,0,0,0,0,0,0,0,0,0,0,1,0,0,0,0,1,0,0,0,1,0,0,0,0,0,0,0,0,0,0,0,0,0,0,0,0,0,0,0,0,0,1,0,0,0,0,0,0,0,0,0,0,0,0,0,0,0,0,0,1,0,0,0,0,0,0,0,0,0,0,0,0,0,0,0,0,0,0,0,0,0,0,0,0,0,0,0,0,0,0,0,0,0,0,0,0,0,0,0,0,0,0,0,0,0,0,0,0,0,0,0,0,0,0,0,0,0,0,0,0,0,0,0,0,0,0,0,0,0,0,0,0,0,0,0,0,0,0,0,1,0,0,0,0,0,0,0,0,0,0,0,0,0,0,0,0,0,0,0,0,0,0,1,0,0,0,0,0,0,0,0,0,0,0,0,0,1,0,1,0,0,0,0,0,0,0,0,0,0,0,0,0,0,0,0,0,0,0,0,0,0,0,0,0,0,0,0,0,0,0,0,0,0,0,0,0,0,0,0,0,1,0,0,0,0,0,0,0,0,0,0,0,0,0,0,0,0,0,0,0,0,0,0,0,0,0,0,0,0,0,0,0,0,0,0,0,0,0,0,0,0,0,0,0,0,0,0,0,0,0,0,0,0,1],"OutputLayer":[1],"WeightHidden":[[-14.792321254033274,-6.676316420655224,10.130128297174092,-15.793698999925569,2.6371348287276817,0.6430001083770569,7.495687731704053,3.6982403587587247,-12.176679785887137,-11.218259498485406,10.731429030832532,11.37803808551119,8.552572766752148,2.2805283346578022,-6.462814018682173,0.6127750299924378,-0.8243042594101269,-2.3162368444841017,8.219709558827546,-13.024553872553097,-0.8349153340345625,-11.874292891065702,10.473141677064952,-0.39591961306760404,11.006523225567465,1.1160269817820034,-18.06454180977235,4.128211073713009,0.09289429458162272,5.5299129215973695,5.8495235665180045,6.235992839509616,-0.3144824727971551,-0.6084409064252856,-10.56675496177846,-14.648920492818624,-17.184271926084513,-6.680975508123573,-0.9641706216525621,1.062747592994362,-3.979292888872637,1.4821953960268053,-2.7714135861809126,5.105098291096049,-28.744756181374424,-4.390232263642801,10.269566627657305,6.882663914495303,7.575769224336643,-15.556719055500228,-14.16381576727954,0.652758465864841,-2.811181123858539,3.4606725467780235,3.7318528396215873,7.429802220083271,-3.559352190429005,8.588676779704056,5.066861744896113,8.497953013442084,4.703860972819043,-29.487492629819595,1.2667486699847936,0.9013054801929976,-6.720745655968119,7.427920766992591,6.798059080393373,5.517124955050868,-0.301584654831452,6.437399764352737,1.5814002089205998,-19.034498098350117,0.6888875397198724,1.7162997568062943,9.427534650250788,4.576042725655053,17.463543829077988,-8.018723312332503,2.0101742868246486,13.556459825401838,8.616750423225177,-5.531471221325095,-2.359509211023307,4.2607736329412615,-6.478378824823375,11.997754494823043,-19.546804063597992,0.6332817354825306,-0.4059690644485099,-4.091602927555259,5.118171000995477,-7.759314679118301,3.471548436902803,-23.86468461718185,-1.743079300352321,-10.767777244687126,-3.0208268000055645,13.132694679960013,-5.308949201473983,8.11682734171639,-21.19594887128802,3.2187384826105094,14.48955761464016,7.2662362634638535,-10.91446784150734,-6.611388384316786,-4.864218025873476,0.9403787210156777,0.26751764954635177,0.8046174859696124,-0.7428234380271127,-23.123655574622155,-0.627953436683038,-6.422581840099592,0.5608934084177664,0.32718868979269367,-0.30173596710421613,0.04472132783364513,-26.66711177857669,-2.319111465279767,-18.00446261399605,0.26469239353979956,0.6807786928199481,-0.4376886892303674,-0.7907738227435775,1.7227316290567036,-0.6481989484534085,3.725544987758347,4.9313182153957875,-0.8989936857420102,-0.22996139059566412,-0.8889646819117787,-0.44659050184528604,-0.24580245274475487,-27.073108313791284,-2.323480045408052,0.6498640200192592,-1.5440927672965952,7.429155445666397,-3.199205357031491,1.5882609802766865,4.271499837891334,3.4575324256482296,6.219605218247745,4.66734699885823,-9.140333558183636,-11.868171572309741,10.983681528205887,6.513919723397139,7.447759096672086,-28.088936220586927,-5.553826428181251,8.601415039055757,-6.372561361709027,-0.7534889857770387,5.845008585591512,-6.804245580039745,10.630543404646462,-1.4714830335345042,-6.204161491090951,5.27049438566941,-0.04755506300167922,-8.561724835727373,7.3952103465992876,-8.786358779429275,8.523960909214209,-8.45627449483094,13.699198375375845,1.5660989563819678,0.04838498409314505,-19.855679412420322,-9.622962248873051,-7.725576093802793,1.005309116158013,-11.432301804616085,-5.566370796097011,-7.824393133693633,-22.565895009025798,-3.6024190934803,15.12717848278422,12.042637399677798,-3.143634342451106,7.781446523788212,4.704545397130501,-17.987999354055273,2.683957408830083,-4.116739119398049,6.928660587025782,-10.045161714997953,4.540222335056769,-2.0893628926176535,3.9422072090678077,-19.97407771252372,14.320988768215095,-15.004378254019784,-23.35144573623856,-0.8654837928283364,-11.560750471000945,-0.2804865903945543,-10.091157217842726,-4.134200430365093,15.835232055072368,0.4296392288987428,-0.45139973564390434,8.445829500568298,-16.248121261010617,5.728765714034021,-3.0150083648399573,-2.97159462562675,-25.70450030174614,-30.22745735130614,-6.028483420971444,-2.653081432724902,-5.798317425017472,-10.428709842745606,4.033157904971765,3.503362252808912,-8.50888756209355,-4.874096643969615,3.4023784180952292,-10.18145013853647,-5.952680539753599,-2.896309448568318,-5.162601538130793,10.86625138219814,2.1254001136129705,17.62653494647908,-10.406026135713079,-8.755267394362512,-3.204044011156979,-13.383083443781466,4.441589674330795,-3.3835432746649503,1.248674500750386,-7.775054862064312,-9.496515106757606,1.5693496075448106,-1.8119873241991356,1.1828914231156185,-14.259810837253513,29.294407868442338,6.076493605926946,5.713784413423284,1.8275418527785063,15.009513527293995,1.8727349461712257,-8.334317208969441,10.823997313476744,-16.052838436102967,-7.925244280392676,-8.038841699478493,17.28833524781553,-0.3327906984315653,-0.24017626756102461,0.3002880514475328,-0.4312186617554966,1.3216113862119687,0.39556172704678505,6.699151931066571,-0.8154355439535902,4.616377663754716,-0.7855925985586839,-0.8501444363250056,-2.2346563044408034,-0.5619208768874442,4.33803390218707,19.557843448065313,-0.4999366013002573,0.9842774240967107,-0.1485110203311596,0.09241803120490433,-0.3887501499339795,-19.692499017049155,-1.6471686163200463,-0.29309475808737756,22.825446349654342,-37.72243404183037],[-10.563734774312277,6.8493148653606735,-4.718017720116149,-13.177380672725175,2.6899523895906317,-9.59719810468286,2.7623570019458032,-5.896157223669733,2.4992697725364317,-11.127910709332246,11.900256535334483,-29.295709849847796,-4.782375599610416,5.486872332290368,7.731030766933622,-2.6697800012869437,-7.8030673082951845,-5.919236647486357,-8.96073179646367,-22.422919218645564,16.938178920704136,-5.946834802372342,-11.42953642391539,0.415792777738351,-0.7829562624871663,-4.119142459235148,1.6668935229088035,0.13846025431022052,3.577449822964206,4.0455796236217605,-2.6738306567775125,1.0400615874965589,-0.5391873086225174,0.7871866689367604,-8.672935336271378,-6.526066332764684,-7.51340037841625,0.24477334027379946,4.55246138854001,-22.0874783659492,10.794258778514576,0.4814812963020509,-0.17559125832754915,14.435794590585589,-3.8650847105995254,10.257422167016252,-9.118521150192027,-3.678596270213771,-3.3059506896209694,-4.344265847081723,-2.2846143853296117,-25.834403985162133,-5.344878819223802,15.76709218559455,9.496107191129902,-13.524142642150698,2.4324340452980104,3.7034670507886287,-14.553024626471208,-9.68166610510543,-4.974867689578628,10.36581452414439,9.396444354489349,4.298245401439741,-12.853129394321682,-2.8988725187882074,9.473344532161281,7.568625357603895,4.7024023946266436,-22.183456539315895,-9.048779118022551,12.294547947519476,9.961297518113781,-2.892035199346453,1.3232491258422137,-2.317428554132988,-4.32883469303237,29.75882090396968,-14.361211480240994,-5.256757040638125,9.066291390612504,21.706646074433245,3.180437101974326,5.4239221015763945,-19.056810923804427,-10.10461378118428,0.6463164128447901,-2.407638929183742,2.30945775769772,-24.070000925292014,11.531433809103275,-3.4120333883592586,2.6079377046936933,16.517652898339804,8.360129977526773,-14.829267553923565,-21.61386627710866,-13.603819371647276,5.157332620310178,-2.073711845531421,-5.415890881178934,-8.989243837724926,7.835819007623918,-3.759913278912159,5.700133155833147,10.726260361143217,-3.539821555909851,-2.8214447205233197,24.719409170451165,8.911627448126877,-6.182958571824836,-10.82154902731957,15.242051786391333,-4.046353508030636,0.30799116510840663,0.39303103907232195,-0.05504646763436971,-0.714336423833052,1.6098582735274485,15.34640383855475,5.153537335808853,0.7019731094504167,-7.965662199528787,0.8524284219028675,0.7067036003190221,1.1727529711372222,0.3340685823329217,-9.034694688440409,7.764326388619384,0.11473261468444074,-0.302018367724304,0.48304922500928704,-0.9694554868016607,0.9086324779509065,-7.2401362360199295,-20.938550708410375,-18.444999335865795,3.2479705822508866,-8.543888271128097,6.190104894548603,3.076559678133608,2.2238758371120837,4.794448958705294,0.6168062058761279,2.319059923096501,-3.834366044887273,-4.20959080971807,-6.7699954539672165,6.460249868657985,-8.08089380024873,-4.980781580339495,-8.103885857791841,11.316131501849757,-4.3689172391339035,7.990394560529094,-6.5900898487930215,11.461680898275253,-0.563405149291804,8.626937511653827,6.787722679419294,-15.906157627033513,-0.7129449710708995,1.8479533473758996,-11.566027721995667,1.5417674746049694,-1.0985627192979766,3.1576105838179855,-3.3508707577981243,-7.195773228032351,-15.29529005881285,8.796021644109157,18.900762805004852,-32.93274568093412,2.136060653492371,-28.754208889275077,3.212925636021533,4.919481327983812,6.755425316873747,3.8437466133786757,6.3975920856294275,10.039495333153246,0.32396190071315434,-11.120056508985215,-17.787967084168645,11.97547389804519,-9.464872148788634,3.266175609076762,-7.406604135081072,9.307358691086279,14.08970137725286,4.180532892872755,5.950987263941534,-11.886997582860454,-1.7200062373839577,3.1809442259244927,1.7294641805176099,6.526800633849324,-2.6743667744752466,8.522181981015347,9.284784820446037,-13.824575889292335,-6.531836474253457,-6.741783072667518,-1.5165467514988809,1.2459135525589249,-2.9643163155178316,-2.239780505223201,8.487773044467795,11.238487417129921,18.738550691894687,8.175254201536928,3.840836585590477,-8.637199610576051,-6.197353266511424,6.508695409304629,14.654935818994733,-21.205221962352066,-5.080064183826814,12.945109429596968,-10.22514908582964,-2.586954797637132,-10.643982123934114,-12.133372891988984,10.609032007262199,-2.6056592445751945,-8.85667224748873,26.62314495263702,0.32110379099805103,-1.9443825948237832,-9.114334230324202,-6.895258092505954,19.066440500998503,-28.638026532116253,-5.308920551835603,23.474447304772216,-4.759646734462463,-3.9791538524558154,-2.5517836734070456,8.025491350716702,10.264437725300729,-9.744807349282144,-0.09980107637213723,1.72028027562357,14.383121735878023,-7.372623174897416,1.6159799631363003,10.445335974143273,6.913291579854614,-17.41008640000572,-13.481619122208839,-25.757357213418622,-9.954288575279039,-0.4947313755852881,0.12982641784953053,-0.8096595384865276,-0.6707839754313436,-24.96846851911138,3.9499463111799575,-9.93855000345709,0.2222445752090716,-4.030369914447532,0.6796383769866958,0.5219884479621968,-14.14779656185029,0.93571242973495,-34.47320523985338,-3.2911401665878035,0.8553957588584398,0.29483992832336514,-0.4536336361165514,0.9402183573965974,-0.17396233057650667,-11.60861723900451,10.029242631116814,1.7867392400060123,-12.304963727583402,-33.26850913063059],[-6.357786408795861,-9.639042639668144,23.895563563684387,-18.853323791942913,1.9204655987022685,0.48664308628423353,10.89455742942018,-6.843467759077943,5.70876316405382,8.670485192398399,-4.007029836263102,-5.321375639686686,-4.301048301440353,-0.10355014261320547,-11.019400198536717,-3.2439975236966268,2.9968661616140784,-17.817913251291326,7.500597389739065,-13.790251212502278,-3.3257085032244866,3.2667791608357306,8.431931617920307,0.9356146675963908,-23.301747388531563,-16.28900399742113,-3.0058609211349845,-27.47112714541095,12.200331523429359,-13.93823843864541,2.974966635383057,-1.709838027832838,-3.226208797301261,-13.113964868064498,11.842482823128202,3.3303024725557417,9.155292121290202,-5.554072259987458,3.653027625749134,-12.424464373548831,-4.825171532777324,4.311872107012354,6.219084494405842,-0.041870482493824565,4.966081421954549,-1.085156639085902,3.5068111382201033,-20.02915200398617,-4.081665207712582,-12.897581887426233,-5.9442859915951285,8.644134463761947,17.08836872751947,-16.967924757653098,-7.463190232647196,3.14179407132672,11.145655341899543,-7.933320114131283,12.121739187777376,7.573907049865221,-10.743251030469674,4.751430276297327,-8.264635716316045,2.2130489509558706,6.046447392309491,-5.004189413375891,-6.442121306276091,-23.14425200670875,-11.928419160520795,-0.9289921456669645,8.791003000660059,-7.95364258325466,-5.75878723442532,-4.76750845213759,8.824805048003846,-0.45048679386817825,-8.677157129335646,-8.443900533882983,-29.66730388058477,-15.99304617384036,14.347509662713728,16.88303530753965,-2.850107522289013,6.362270825542338,8.717239385148735,-16.801323638112837,3.244904209201137,-5.529647381103145,4.875731655460325,-3.85341897273415,-1.1221473710036185,-6.447742777806818,-2.737974002147099,13.318736114955348,-11.977305949830075,2.5064077665380244,-8.232641902691483,17.450197365027158,4.215344995824239,-13.742961689946611,1.0736737774996057,-5.809065642591336,2.0168917866350737,3.1305455991560724,0.5984672511635337,16.078764372252806,-20.040884746424542,3.726973455284336,18.333010804519223,9.65551893195579,8.06646846155513,-14.44431831510026,-2.547754171930657,15.062040797176742,-0.33755805782817294,-0.5236951848938409,-0.6212815902161201,0.9579021916391468,7.088185530307335,-6.533217155921474,2.550493145758718,0.3432233900292627,-11.82591601807322,-0.48452367073344593,-0.94502612256503,-6.749395761763652,-0.9317961939629821,-7.422636175235296,7.523140968165796,0.5825244059295327,0.29039510475996044,0.5912896765939051,0.19886226855641587,-0.6405061037983262,14.391670972756767,-0.8882760924652343,2.6695822799950983,-4.727112065602664,-11.178565422125324,8.567573002941105,-13.208148214443092,-17.035309614453244,4.36509466327037,1.729057623140917,7.014101707845611,7.37167440195242,5.237466312713219,1.1350664347436439,-24.854335351435772,7.25029491119429,-6.781565449179877,-17.61797546644498,-0.7482854616942684,-6.986680543892234,-10.518933405278661,-3.880786462876651,-5.114988142257404,-9.343145894933693,-21.181257604508893,4.417277590524904,-5.88198892357674,-0.3687084088566065,0.07056983996635527,-17.326632461566263,-8.991126331393819,10.2098804483245,13.974945823239699,-10.676175863098864,-4.4942633619368415,5.144738467609221,0.5641725731359519,-2.348662768485189,7.2518256332776385,5.941210982561187,14.025861265328428,-13.101893450605269,8.058581769741686,-12.276576334910283,13.82687202690706,14.404587474606686,6.046450536880916,5.1378285382322355,2.606016177118558,-11.383548890760816,-8.325192124513418,-12.718431428779857,-1.7417267537426597,-1.5966443051632808,4.054943874452135,2.95869951565112,-6.837550657009484,0.5333869994942658,8.511613354048025,5.668708580949307,-16.206966235533578,-5.955736492571684,5.723244283216016,0.6714721617310538,7.3601753068640114,-3.8538067441836965,-16.111235229553596,-9.484057763527957,-8.179523530722076,-14.109681358041914,-7.866431251039079,2.901714965589691,2.689197433359413,-0.50082209711096,4.924909609700938,-16.895554108449552,4.883858438695944,2.6956780158876628,4.2841246169309555,-4.057605230361381,0.8874266149421259,-3.545955342374182,-12.933180719883874,-17.430101097717863,3.7592863122878035,-1.3911408953284436,2.8763365154521505,0.14803650839567065,3.9582659397468016,-8.127261348028078,16.48480085121806,-9.14552261209744,7.4059103265657455,3.473963943853861,12.925517243401803,-0.2989504856395923,-0.41925025779125097,-11.901575241393939,14.781103834704025,10.9756203629327,0.7072798299675429,-6.386651884187175,-1.1836585489199845,0.20050194694115384,-9.71864410295377,-9.320254265364161,-5.141266287247249,-1.8970509405999711,-8.21553895392225,7.265334466142029,-8.463725789064563,-5.909482732847334,-2.2789261598664217,7.827468613826272,-2.972176408390757,-8.848659665766236,-0.4350200430934504,22.305929282365845,-0.8989474258061259,-0.32778653651378176,-0.3059053473312324,-0.661186548898888,-9.518677602068578,5.660895032294754,-2.6749357655558974,0.24561887556932382,2.045578077272008,0.536451615272924,0.3528212606976162,7.282584467592288,0.06865160445361984,11.861278635998158,1.1328262722379399,-0.9387650222255427,0.5137923176132091,-0.7764879588035266,0.6342819170712084,-0.4865144889875348,-15.272485585596046,4.519447412412683,2.75888273166628,3.223506199180571,-33.795842219002346],[-1.0170369678977251,-9.227705299020068,0.5666388235663001,13.203053680788342,-3.222282595692502,1.0189843392268325,8.454739114572657,0.5521198703379326,8.710893410691394,-3.574477168595141,1.5420664837068554,-11.528551704995712,-26.433333802564462,-4.883446734928164,5.595171754514772,8.27445563523602,-5.412575132589099,1.4211958885805056,-14.882493542429309,11.978323709639344,4.2089393192739575,-9.679343133375621,-12.368530838231434,0.5797033420638813,-0.8977778949582242,-2.4802580394344127,12.21939086295251,-19.51369241421963,11.618005195335364,-9.92967955699997,6.437386747474964,7.8276256045597155,11.806007232547115,-3.5014697829367227,-4.054425141085462,-5.741317344517298,9.640316492292664,12.936566730992284,-7.693405554859823,4.75497328436539,-4.247411321270238,-8.31310546689214,4.525853594382278,-5.532991777591115,-3.8137715580730567,-3.254162173636659,-0.7746047059161516,-12.742857581690995,-2.9460414981284964,2.381499106812518,-11.264558037741159,7.182251511023893,-1.220226710512458,-15.884214203808897,2.0171883231265224,8.540888217682747,5.670883237347581,-6.996231621198187,-13.430127685360723,0.21338331251311998,1.6286933864264956,11.677166175079119,5.624120588136174,8.068582880448524,-17.750658840214978,5.425725318491463,9.56224573156137,-7.5542682791137725,7.4355430208320845,-1.8979483646020014,12.594563595604658,-8.318133970367686,12.500300118726576,18.18788133854767,-9.884032655162322,12.954102990807046,-12.05476665051683,7.411664754724404,1.5207471228513822,-3.6615542551952234,-2.2678153850198655,-13.621348843978248,16.528818853544216,-5.8109008475443344,-0.6948802521716914,-9.087606930512758,-12.404137373843648,0.7707566234419487,-2.182083058853787,0.45574042134097037,-6.044100471361691,30.361842424913736,-16.945974249914677,-33.944448313052504,-2.924419000918315,14.09607944608484,2.8368933911215493,6.060670167720195,0.05208413739816574,0.7401380455526301,0.10103384030350891,-9.7513763231426,-6.399773041804587,-10.478402877508254,-2.555745042838029,-8.875311099606932,-4.162044016702612,5.681572066777665,-6.855725881378896,2.659025765061171,-2.8079967533862615,3.1422720006321487,-5.444596831939978,-17.275928362722297,0.682363874601543,-0.02984193306440408,-0.5177116484425944,0.3277085833502824,-12.038597815703106,1.448997911079841,-14.667745065347473,-0.9616739684045535,-5.765784912041296,0.8799595891601701,0.3901615840731736,-0.7310889096814528,-0.3354990691282652,-0.5233719653337419,-10.716831461116143,-0.8111795712864492,0.19094719307052155,0.5613936692131092,0.11106444184174724,0.2798438547512718,5.4406430842578555,-6.948741842620661,0.5548544855908597,11.193725814821967,-13.979359402761883,-10.52955968341118,10.875689349720348,22.64879139757774,-5.813785719539612,3.943395331322033,5.396609709318733,6.566893025385698,7.92296058470824,9.776900711495122,18.63085548479123,-7.98826048085135,4.8165730062134084,-8.320924440685326,-11.25076536931563,19.88656640698671,-1.4493947195621741,-1.7634229990921786,-7.6902978187551705,0.9790207105847251,9.293976442067194,0.04793586225633176,-0.24758613342721777,0.16298883052700686,-21.25618437861263,5.875969892492503,-8.371501031938685,-2.9683653009410356,-21.739979959541138,3.200653294237403,-3.3151081236044413,2.9031708604694533,17.548270187465253,-10.132018193698954,-10.21903522107002,-2.4126485311658876,-1.6629431824605978,-0.7721123341411188,11.138813085623498,-8.702901689603962,-16.057002739917994,-3.4900151041354865,-4.028296006213522,1.3079041899326243,-17.119590015906965,-6.862164986060983,12.836891477211518,-7.100764705108293,-14.485213929003521,-5.07763494409602,-1.5249570185928831,-16.45656845537633,4.7984702113433775,-0.013926502689107655,-3.5554773076659774,-15.704958689335232,8.893062924277974,-3.4997537542848565,-10.221970185058298,-3.484637469395134,-7.953667789185221,1.0762322097846437,9.598647883002213,0.39610123302680156,6.879800283741005,21.63149441904348,0.5915220547398506,2.2045051485128973,13.732186763142252,4.280121147203149,-11.503776319034676,1.8150905717563819,7.710012899434737,15.662892509463997,-1.5591892294054426,-14.054229592022915,3.6388933549548206,-17.901404002781437,0.5427960442638187,-1.3939423504098778,-8.446396754339807,-8.861294127305074,-14.293049895878537,-15.650792215992134,-5.326266881924466,7.510798619466728,-11.582895301941024,-1.33233240957099,1.448435712547171,-14.377621702125118,7.090787828967854,6.715068214750074,7.063257897523799,-12.259099227191369,7.109199109782209,-2.974798404327075,-7.101041884598258,-20.943990235559582,6.444539777077769,13.607413348755133,-17.011071374833126,-18.87672992357078,-6.348784934940091,13.438364881137035,-15.94573197148955,-7.0880732147588015,-12.962883443807073,14.736539198511766,-26.370862701927166,2.4757550636973322,18.2583504430826,2.1776510667643247,-7.055693292013431,-7.248749916615118,-0.07386201154880756,-0.9484032044259894,-0.04807410642551224,0.6997212711379575,-3.661345132464664,-13.088740734176818,-8.45386875124715,0.9173439922674589,3.9746008406839133,-0.9153678820879138,-0.9077887629896398,1.7699395802226063,-0.4092326123390425,2.560661585090702,8.99551338906389,0.8314330860331143,0.8756343276037697,0.5746946180074302,-0.607552700720172,0.3630004107104794,17.55349250118037,11.731437718521597,6.807806673799046,9.406004244136978,-32.24954374251007],[-8.39725845793345,5.355688789847885,6.370813567648327,-3.832041724989586,-9.793004271306174,10.959240284213434,-7.180918741332055,-9.66775596818626,-7.219339754469,10.42350976352311,-16.54551060165047,-28.325732968960228,3.012436096024047,4.188969981730267,22.815031723370193,13.407715377231744,-10.284069477108021,-32.77322559870674,-2.5391312497152074,6.146101414435616,-1.1968241506438608,11.163144915493064,9.419363296604407,0.7990463694875136,5.700211038569329,14.563363842135706,-0.6176222368539358,2.658670516098152,2.9009210914336943,-13.193558205556347,-7.552760236739803,-1.0026520077186523,3.248572070322688,-3.130042579423726,-1.9117879293748248,-11.6562925904421,22.670207680582166,-9.043857070884822,-11.903770492559383,4.794582087979685,-7.373234537722266,-0.004742616805366435,7.2092388424423195,4.181185668979864,-19.529293675051456,-1.8924690386686391,-2.696258202494508,7.71120990892895,13.820681603151543,-1.8705831767550023,12.99140522167026,-9.427502096243831,0.009648739393834269,12.98090480399634,-18.84798696302013,0.01741174767573389,-3.05880246427765,-3.5438004730810913,7.591395914280337,0.14487641242277938,-19.503371091956144,-6.744551935966494,-11.829530692956514,11.302892505344367,4.901622317375779,-4.085643833291582,14.925737431238927,-4.388941091074924,-31.992687035219053,-21.26259240935039,-13.005842267612634,3.719047076388343,-16.390675697054522,10.918134682473779,-8.945120355903995,-13.690655395902175,17.771590051817636,22.00000563373249,-8.802243085569165,-26.827750736126035,4.162131712312488,-31.298973344267203,-9.101898596745809,-3.2259866638908568,15.441645946360373,11.549104600454688,-7.619111158776679,2.8005626784912945,3.285438710816248,-1.4346708250579805,-28.285232584139447,-16.559457571908077,-3.8406687621044937,-3.2374266203400675,2.794828347418191,-2.996528215441815,14.149872948177643,11.742623327456789,0.663051914399506,-27.080951641921626,-2.797358049563191,16.61814550120795,2.1851293286568656,-1.1929301234460745,22.022418166768173,-18.931861264990413,0.4827965937709523,-7.8898592267900485,4.74901541874013,3.213353264679203,7.77476134117165,23.136107808559895,11.243223585505216,-8.327995767917452,-0.09369321603234548,-0.9345796570250382,0.00665436056155122,-0.43544004078278353,-11.31591889531972,-8.511391066417547,15.00875184611739,0.07983999073470738,13.658378728683964,0.5013068338662792,0.29725642897828775,10.75200183132292,0.9256388801578701,10.306897793387765,-16.6570429867481,-0.17305769271540916,0.6256136672598693,0.305962688061002,-0.6639291139786765,-0.3650302357963312,-13.274071352002712,-2.527973070146947,2.5764357885356497,-14.668203397426314,1.072893184282021,1.1958332050203073,-4.268774562794528,-4.464507092311087,-10.90672707395439,-11.15070604344734,11.229560423888412,2.158842633590277,3.6199964914601868,-4.571954115970189,6.708544857412094,-4.562059150643796,12.163291510953814,7.299146320088542,-7.619623547305518,11.222123507007417,-34.726713703936575,-7.194077902036942,-3.7559987857532544,11.396955797116888,-20.326480142428093,14.067327875900865,-3.305763219244348,-0.22106850750298201,15.90340211007969,-2.8595262314205994,-35.36472767028005,-2.5890079107171404,-12.60497904421912,-13.230090772977904,1.549843233681783,-18.984245813182195,-5.201639445253043,12.397399683023156,9.735804518591367,-2.00450255219538,-12.326109982898814,-4.723909416869193,-5.015424513271972,-3.514097648381523,-21.439647968822843,-7.738123587921924,9.761672171724218,2.604388522296757,30.182654009752113,14.426500593434735,5.177265519890251,5.373928568521219,-1.710874079238863,-9.92122055738394,-0.6783992589256943,4.613519934322808,24.516758154411978,0.8350555177612672,1.6920080923452536,4.774337540723537,-9.575280419926107,-10.396891766714417,-7.356098347991505,9.75365367824666,19.650280453727195,-2.6507420937131867,8.746992238693348,-14.107628773645445,10.802389270467089,-15.458339880594158,7.202637667111934,-3.7215235030768934,-6.981470938483944,-20.79341494711737,1.62971244156301,-3.777586707220841,-11.291112616429592,-7.6415489179310505,2.195809047123645,-1.2027138709211727,-7.338955513498685,-8.414533599420222,17.837331498195713,24.591646556201702,2.451541224011614,-10.872781672040027,7.4876530980340394,4.048089247084503,16.67152112691318,8.063526869862288,-12.708509981280066,-33.706619304617085,1.2786272807384755,-23.610990376278608,4.605652857253538,12.520850963581742,-18.207262475638455,6.968950150316304,12.065917385707444,-4.651311296768597,-12.621247515715073,23.687992326051365,14.282798578073308,17.047013129020662,20.752650600475388,-1.5139696435638565,-22.52420566932426,-6.304166451787625,-10.066349878193588,-8.520547976587666,3.7048689729111954,3.3403721311441066,12.903378342560774,-0.5429088869889337,-12.52362654299733,8.65833557809704,-11.650593102450115,-2.7257739132452636,-0.5600289908410891,-0.13519834499884986,-0.4670752665504042,0.2562553559008214,1.2573314121432093,-17.879974877350893,-14.358153616072299,-0.8203858149583853,-3.0598026833839116,-0.48623838969930067,-0.5956231324802174,-15.292361069868626,-0.607530049521497,7.401504062488049,-25.25793649610712,0.08377338229479259,-0.8727340117222587,0.07743125808673401,0.7547850945586017,0.734941873784366,18.250786305218995,-26.67327804004006,-4.586024135420937,8.810448692805835,-33.911440532397016],[22.759196590673884,-9.936735162408668,-2.09624545643688,-3.3734475937535082,9.020884231238412,2.7575581422951156,0.4087604748044255,-3.6605810724674614,2.02154481450429,7.610034600854943,4.8022484470227536,1.7476986341878746,0.20517989307533716,8.61259558053874,-2.773782081532456,17.706253456986087,-1.037179745789392,14.601244832427438,4.164282229192719,14.455146548347408,-1.0772539260451026,12.096863987951236,6.703553141188259,0.7959576415111236,-15.988405310333016,-4.257260676132753,0.6669002843976641,-3.3640703880640523,-0.7682810281079168,2.527480143000059,-11.29780215455021,-15.891096555648378,-14.742362340300863,-4.891346702309417,-17.1416017879977,3.8906446946635533,2.8595143298651045,-5.250602321429105,-24.68237488321883,9.067844360375162,5.447050386293351,0.3063261494571166,-14.13778691151624,-10.502288223663728,9.354728377652672,-7.3755529691777175,3.52301067697992,-21.609345057729843,-6.849284761638594,-15.342034030048715,9.259723040378558,-16.300942991663906,3.960476413412353,2.228200540691056,13.611088610537193,12.223592585831964,13.322499733651346,-8.110025455204445,6.060819311338995,5.97314950554516,9.562943002656263,-0.3033617644839485,-3.366467478135136,-14.927614686131626,-0.6785516449939292,-11.707123684293888,-11.057659603850164,-15.396723674917263,4.385618127592157,9.139210197710375,-8.062166926301188,-36.860251910392485,-2.0507127995370227,-6.2536093680875995,-0.7810215362660972,-7.093289384234532,-16.979976633378474,6.980299587944007,1.3974932292093023,-0.7497012653755039,-1.1661013861321277,-8.044503969415963,-4.680016030311363,-22.01001077607643,-5.473638285675989,7.277404277548253,13.11308507106199,9.269930653991993,9.07260343459209,2.6114041868167392,13.437554901721025,-4.43547642391801,6.60305340205933,10.909689237178544,5.904775655512637,2.8452635137667586,-8.80762410476986,-3.540140278820281,-8.124040623189693,1.3602249454561208,2.7840373855855725,1.8499702278605403,-6.537425707051867,-4.176149734281532,-1.4203700369269672,-3.2563574212774222,-6.693300408880201,-0.09534524999971829,0.4963384343103999,-16.591126760727338,-13.845740270794913,-8.652449054331278,1.9886856339612857,-9.76118493442724,0.8690956000283541,-0.10943964127521799,0.21535722930605194,-0.49742687890166604,1.5210924760016986,-15.876052269952936,4.395430292069571,-0.7890480881097202,1.3449799613715523,-0.8711651688057833,-0.13581417693185582,3.945968316675171,0.29604890826166197,6.380898169849791,15.046522618540557,0.09118699368465544,0.34652769614306145,-0.6754116232504364,-0.12889416790555275,-0.42716471289259306,-14.945049344315674,2.866618253275945,5.543467710515025,3.9275748203127883,3.906985420397339,4.471342523510121,11.1532062199267,12.521721622175898,-6.709438288189039,-2.1448287371445867,9.161056610140047,7.260762664664706,-5.6860607666248795,2.899992005921787,6.074813034916754,6.101243314269863,7.051776257316532,-13.899268175266707,-17.522321094458277,10.744215798420637,1.6667367911639028,-2.458471708573312,-11.030854771441817,-3.7772213060844595,-0.20141777590598817,7.17550805497503,-1.791839833349322,-0.2444231084110542,-10.101585759592624,6.2282388298601745,-6.766500568045778,-8.22907264606672,6.63523362419491,-4.068213940115989,4.653175515343757,-1.335374727690801,3.329550108350424,8.315681723492009,7.3611922341902565,-0.055980154740019814,-25.532080294588408,-9.449010637543013,4.16229560188579,-7.935278584200711,-4.271430748334758,2.8189886984061596,2.140928015248378,1.5185523856150898,-19.49194866389564,10.834388712966371,-1.6062343564835795,-10.146136338927978,-4.070114050926224,5.550457826587034,2.1035925004042886,-2.952609681486078,-2.851844905546181,9.87788623319336,3.6489734279218133,-12.443235870648605,3.1754710059393574,-9.108289027338355,-1.511121871103363,-1.6468801538834954,-8.325608549208582,3.7001722933189356,-7.800653397029386,-8.761266458645943,7.713569575348227,7.503332838734324,-12.182708399979635,-3.748753703327298,11.302575066982065,6.109572319562057,-0.9119994102491523,-13.478982164891676,8.717804712172237,-3.78267764492739,-4.041069609947846,8.63648450627663,-12.572290569327546,-13.205769502604745,-1.656881335145355,3.373727808500027,16.27909596538328,6.635056406207525,-8.862274768693943,-14.156322303427757,-17.774267428521817,-20.442759861997338,-8.864364959085414,14.54777148249139,-14.831374308468044,11.93706830914401,-15.378444733174137,5.258265161781556,7.3421115148871365,-13.635385835549396,22.626536102181355,-10.446438705588537,-7.883717182400425,-20.73547754110688,-16.274914814395544,-2.0898925154693346,0.8971761625769628,10.45879548512119,-4.950663190264783,-1.9510143140661544,1.992647118903004,4.843392702555666,23.40805547466491,7.980728159877412,-30.705325605880393,-2.9673506388546547,5.792744665569337,-7.8784221028193295,6.038342291172856,3.72861001153044,0.3490850136918615,-0.8112110309859372,-0.8501875835264581,-0.404816542809755,11.942769060959188,0.6594354365218511,3.760166092811223,-0.5128546076266547,1.6405165741849461,0.18566411610740774,0.3935920856671675,12.62425323174162,-0.8781223202879602,14.160332196995467,0.9668803914705172,-0.4089504390065589,0.6999827818686035,-0.2848760756352514,0.45734045437892057,-0.5097658119286621,-26.06770634935836,-9.636470920643967,-0.6929427336420919,-12.028689692729682,-29.61034444587827],[1.0337742329268345,-3.9959161533162075,11.619033923725043,-2.562770893052286,-5.882104657517777,3.934899609915282,4.374890842777193,2.8349674106618434,8.476277606730992,-15.33818975260275,-2.8045929648917927,4.438390515306478,-1.7246892896202215,-9.954147026182675,5.233212450171759,2.946752036321687,4.362610956936133,-9.243735672006869,3.2284086778215535,6.912433493315773,2.0282854374474417,3.235059549911841,-6.419498046095684,-0.4764310414241719,6.489111862363203,-11.342441871116542,-2.0624820399132036,3.2110997720190047,4.047634723096493,-10.892436436415633,3.622272102469878,-17.64352109207705,-2.547392749911542,9.387609227966076,-5.901906694808657,-2.4909712500884202,-1.9616170505202688,-14.70575619287503,9.658689800531988,3.750235761606329,0.5324568576598415,2.602130298479285,-5.325909522130675,-4.5798211343186335,-11.626189616145767,-6.811861080437644,-4.932081098139622,0.5309397007936504,-11.925001301353669,-15.823996137855659,6.8592528898990315,14.183606846120103,5.625540330279614,-0.9815110494383699,-6.4107201588229525,-10.506807423714282,-7.560220150295503,-1.8643936088132371,-1.3336341810530201,-14.440818815679826,0.7069387737061131,0.8481042905493692,12.8341463914767,5.216857050579362,0.3297459217033621,-5.98030086859587,12.167161707174039,6.263636018682354,3.789082165968083,-0.21683989250044208,-5.239671120879979,-9.232477528654876,16.450789358441693,0.859816196525933,1.0270003324500592,-24.386264989942717,-0.1878200964315354,13.530942254440136,12.006871059305263,-2.816545626219165,2.418878047981312,-0.8854405119061084,0.710343239261557,2.8139162632478785,-23.374375226656785,2.2698573925314163,4.494350128971117,0.3619162824001183,11.653444722643888,10.26431295707489,12.726244884484618,0.6921167245215808,-0.32649734550221454,-1.934579737001974,-7.670518650339171,3.0466880136299785,1.2964916870878722,-1.4523493028762116,-4.591013517019138,10.626058488887137,-23.434482808980373,-9.568476741021222,-4.092323327474465,-1.6234931910930759,1.1992962464250836,-6.139755710972341,1.0418953367464903,-10.49889690630157,4.258639053732598,1.048718708103576,5.597116153323242,14.601294881562655,-6.4186937367248555,-3.8841934161287144,0.3056623704260455,0.00523683912493178,0.9048712885081187,0.18387135666260446,-1.876802671896305,-10.786123004990012,-3.7649881999093844,0.516059517969728,-9.353477949934582,0.7469294955414945,-0.5644891591673814,4.059493717802674,-0.0960718789410262,-4.502118187256205,10.987017377239596,-0.4670558324629729,0.08645696519080959,0.03783679079455382,-0.40184503547035555,0.7217052747670043,-5.321155175944503,0.98788484347335,-16.591698058677906,2.3618918316728794,-4.055931386020281,-21.646927366369102,-0.5200818031598918,5.624850655472456,-5.192630982381158,3.7268522086257074,-4.370266314631457,-1.0174739844012415,0.6301395321680205,-5.088074301772124,12.386332285460938,3.649215044231868,0.9051046800311643,-3.657151143441339,-8.0202423854318,-2.157032291001269,6.71293290853644,3.0292023130529033,-7.655832013399854,1.300479490089611,-2.3376835034814865,9.18024176364265,-4.570192495143966,0.7285918446918853,-5.20573133702507,-6.893395162737467,-7.104137261248524,-7.536935572242428,5.481600031311674,4.831614862153228,9.642158863379446,-3.788535789751126,3.994749990216547,3.735626575461565,0.9960423684537683,0.6729650858198067,0.8713759292074951,-5.2243681110600555,-20.82000530835935,-6.440436830562343,-12.984499097578386,3.276726641736325,4.491287696592727,-7.129972086590499,4.072465998200503,17.202901353626764,18.00526906085082,0.24315171017105425,-3.507760888829381,1.6855237730741517,-8.90412418601773,-15.46221468218611,-3.23821694974911,-8.54349780554912,-12.292569319765109,11.313311145740657,1.2860824434349667,8.54518377506179,3.1771284620891524,-7.98551306914904,-16.813927076255162,1.945648861340302,5.0783801775863004,2.864325484870427,-4.66950260226488,8.419007439775589,-12.518961584409205,12.110578679758145,4.519035937065194,-3.9159402935155074,-4.246609426196853,-19.585165689906084,-8.25071320642042,-6.380518957434178,2.0984200408037474,3.61738787793436,-9.527752103411638,3.7989914429300824,2.4578615141776265,-0.021266917728816333,1.5325292350596154,-4.355514779216649,7.821676314291144,-1.2186048089029726,-6.5715461957181205,1.903858711971824,5.2321754356712615,-4.634179790536986,11.080309356860218,22.858099762045576,-3.8323585961966464,-5.066805644445603,-7.83627678477369,5.0116735933344065,-0.44767438306491636,-1.5568970989142856,2.589451891475685,0.8483825911601311,-3.060935888626,7.5807877729666915,4.040200479108742,-13.505998580598535,3.1758852344940602,-8.288870059836999,-9.467234963478393,-2.002921104762704,8.4119927199877,-7.842191600346104,18.874728700337542,8.965212747589018,3.136224179558713,1.3756848857999842,-16.34392892672981,-2.1450508971594395,0.2921629996180304,-0.35916498475921466,-0.0006513537904786482,-0.9382332156784312,4.296495933603437,-1.0561475099515754,-11.929625221311182,-0.9178546344288301,-1.0255670570500495,0.22480846887755113,-0.5831006546124948,-7.586602164424997,-0.7516442608944425,-5.384883854848577,3.2356304088945977,-0.7309063974820555,0.5915397254709658,-0.9634848754379779,-0.5831159636209142,-0.1739014502485735,1.1522839643416056,0.9952084690659562,-2.4907322350090384,6.0347681745553645,-22.231620804313575],[-3.087738571128819,-16.672503172931446,6.432014187002313,-3.6409912163964715,-3.2510010336680724,-0.28043558039104577,7.248430670368974,-3.1081361739905695,3.929205530184482,7.592119451408242,-6.320533403294882,7.993573254408814,3.8988952862153314,-13.111314977013793,2.3967693673439485,0.9399494158258292,-21.399796174438503,-11.83031980342106,-12.462787669554821,7.305539052285503,-14.869329718694203,18.61611550403994,-3.470955465889473,0.7703720962590974,1.6925120675833827,-6.3554503863923735,-7.996217203862075,-0.4245830216642902,-1.1154038601703835,-3.2045656204127333,6.561590734868266,-0.7007200816729396,4.221660780311847,13.195547439493115,-1.2189525588903036,10.325028574164428,7.422801368820539,13.019415665985395,11.98209124376574,4.224529572582951,-15.894088817887807,-4.098384233715441,-6.798837602408833,-29.421256018541616,5.809130844332174,-7.010225615736994,-12.08897233685637,-5.018685290253318,-8.895864746914466,4.947578087500228,-2.534830861437832,15.184127309673945,0.8254969057196833,8.004635146744791,18.74735147982269,-11.559324506490883,4.391063868040196,7.853512116828184,8.032697907812953,-3.222055175398288,-9.521518514865608,10.79476018780573,6.911073299003003,-5.172056923709802,-0.7561359875542234,-2.6807701091303864,-14.269414259347302,-7.204008520048222,-19.299894237337078,-17.069648376813507,5.079949960343178,9.59030405425895,-25.438867935589638,-3.6217420682519545,4.746446120643006,7.570445988442053,-14.997784628481048,-2.3930108446396194,6.670657861725103,-2.688322279666467,4.251837539554275,0.3401359539238176,-13.979958148843412,0.8899610981952019,-3.4585852488992663,-3.872342729667616,10.519580401263585,-22.30026969492307,-7.541601893867338,-0.9689199388521856,6.933601609693125,-1.9059781268298868,-13.411072613763693,15.746961949660518,7.361688611884663,-14.338950210818679,-16.448959835161453,-2.7416762689107963,-15.098426409219798,20.023264687443824,5.677767079815764,-9.111912580069175,-8.495914471902426,7.46529311283553,10.079286078563424,-12.46305311539897,0.9353602476129153,-0.6853554565930537,-21.473623716193025,7.455457071637401,-8.820466406445572,-12.000554557821268,16.410495981694773,-8.49163540564891,0.06099627620061088,0.5557891625674718,0.27059810954891717,0.5997335702535302,13.454948903506937,1.2853054105218404,10.376769647397849,0.02661983766289744,-18.72195416097896,0.3207580926921543,0.6071514493582577,2.5825107344776495,0.6143593649208992,0.5356722196327323,-17.805773088568767,0.5736372911173353,0.29066628265277683,0.40291400357493634,-0.9138568496762559,-0.045069184487397274,4.225762434164321,12.03072361256027,-0.47159256625520296,10.910675058607481,10.34539282302165,-11.043746547167132,-24.610995857712023,-12.155757924913182,-6.283366632519698,19.210103680724885,4.332323794926442,17.548352386873066,1.8249342683309868,-6.508307814126855,1.294427939282457,3.4396677304318133,6.730950529024015,1.616134426933279,1.435880463046496,0.06910310027869711,-4.513166287449414,-10.229251578266227,14.980225448169634,-9.88330314643396,-5.825199720857225,-3.694986364943178,-0.42073215175690787,-0.5635823158857687,0.7768653818260121,-6.764077135653507,-3.3858576411536543,-0.7354780201051457,-25.240192787762524,0.6402378380370761,-7.035087399102409,19.92601740125085,6.542273713093393,-12.09462433173703,-1.7974382457812859,-2.807998613622416,6.2707290435126115,-1.8495481979144042,6.175723714631434,-2.1680453399524677,-16.949932039038675,-8.06741808632786,-8.979985328286238,-10.652247655118245,-14.430142813599817,11.557718704597116,14.564794898626342,12.681704877016243,4.382042901812239,16.16537524899824,22.011070616094386,-20.77071958084879,0.9624004080051952,-6.574063899179761,6.649070107357501,3.942587089965204,-8.866164958500788,-9.378509528717728,1.0966753321926208,-9.074475027029708,-1.4432825926185544,-7.299981943622876,1.0274562214201897,-12.719219688497676,-8.406398045104883,-7.679534477257118,0.25908282656095144,17.363553843470125,-9.323698312989533,13.130775287967046,-1.552151402575444,-18.35911819178179,-4.060185238582069,2.6612123303363004,-8.867977600226407,-7.682440533160365,-3.3582643434460397,-4.055159883590927,-3.9739849399552605,-26.77003341398506,-5.741869823584057,3.962805085982899,-8.927008311755447,8.544215195307086,-1.6757562649471722,19.359584115737555,-1.9997321901509464,14.816341869613092,13.387244744242603,9.377788513949396,-1.3620539908977847,-1.2780054055049725,-5.054005187592399,-4.846286439714037,10.253381512267136,15.748529815680268,2.5315908618247565,7.54259651699824,-10.87776634946117,-10.9300306393682,-13.020869116399936,-8.043173895054387,5.492406260859832,-14.902719180991827,12.154849137486844,-6.310633086466205,-7.576555674911902,-21.667202200380267,4.427534405513131,-1.7267951360844291,4.029925055507622,-10.365461879952655,-1.960253266789862,2.2790199798700748,-0.021347729403503046,0.5936595012548076,0.9216718662478762,0.8967904958620496,-2.6320749262818306,-5.690156410342867,-5.454406773033717,-0.4928198758225315,9.913475774819409,-0.5372525658575651,-0.42811320911704953,11.597219926029627,-0.3271098650233495,-15.136966526723514,8.663246764517671,0.3468962113674414,-0.1308605067395754,0.8827288041367045,-0.30006215355128796,-0.6629722203520942,-15.496678091583673,-5.946281933304386,-9.824196182037666,9.679854213214,-34.66951126040296],[5.165784065499104,-16.030571540858077,9.635019833748043,1.843155549789252,1.9937576102691907,-3.1726776740272804,-7.868993823204736,-12.165612667212015,1.0847203386128998,-10.817279576393377,12.05400234502499,-1.724798870964877,-11.632094934930226,-9.362946354991129,6.723246492384479,3.6447868400356773,-7.132093248593264,3.4548622598771157,-6.094333768420303,6.403853004500213,-5.497282813515086,-2.1401129255696443,-0.8599028055562415,-0.9847606142731337,-13.544897703700272,3.2148754478807704,9.93798803975705,-10.289711246433932,-15.40975776257118,-8.51152710139417,-4.7747450601764205,1.6281730337826061,15.933670459563553,-20.493935129415686,-17.86388647332202,-6.834473210025177,1.5655649566446215,-7.720297002084102,-0.9346697538648552,-0.2805384179536352,-8.077277731177055,-2.3511438386904007,-8.167212816889283,0.7383320098580849,-4.365106620500031,9.121969912161466,-7.386604984527169,0.014937347373820731,4.691925566652747,-13.718063581815237,6.620387930954307,3.694243286625811,-11.563428136552854,6.603812775021615,0.8929166415017432,5.1959764483237185,12.859884810927625,4.217301054320396,-4.528725488074883,-7.6316431522623,7.610104163069725,6.5886444094432335,-1.9418510357677712,3.228905931615199,-3.7990236816992247,5.9464795952207945,-5.161714697266694,11.429839620087698,-2.478755269065788,-11.388756091089268,0.08311143099752383,5.388941568241121,0.8093803010222241,-0.858381991435601,5.163786171825214,-6.905907634700258,9.810707719146793,1.4034800297099899,-12.366873151622759,2.139081686010992,14.708383873852112,-7.0415851967822105,-5.776325297507706,3.569824498529669,7.552319294244925,-3.9951720750982966,10.677618418780241,-1.8025733053018789,-16.444965687489287,-11.573366060994145,5.806977993673145,0.26437708392151055,-2.766914271805364,7.355111716795492,4.352823892719367,-3.7209811671762463,-11.05424202011817,5.870571930767038,5.894351596548585,-5.492984808037078,0.9320647704221932,11.364950358051711,0.6530454209118031,3.4946017924274866,-3.987998237404318,-0.20313585615022187,9.585969435296834,-4.667424898360093,6.509771757578103,3.274028971920315,-5.309653876013767,-3.0636444450252576,-0.029076602031662502,-6.669330943648997,0.913312180831634,0.6862695990922159,-0.5124495862309066,0.10907720812868926,-11.878933462858932,7.8639260739298615,8.553929318118747,0.845487696664929,-3.9028500244416793,-0.43196511065827403,0.13199395209566167,-9.955948603099321,-0.024588016325908124,-4.571768250405091,12.142899336641714,-0.679823591416612,-0.12586463610642074,0.6547680459265348,0.7845374182720488,-0.4606831406364469,-9.739592991270824,3.879524235152507,2.943920327658728,7.2426890594827915,-2.6024953439731804,-11.978596302588642,-14.4896804473476,-2.9851733782413805,4.114307405760271,3.1565759182226727,8.804272425905099,0.9507370894011747,3.78493922790576,-1.296169509824296,-5.585874872338937,1.8919363843848631,11.136660857730629,-4.060602351828466,11.127864912620645,11.240310837738116,5.5854437068007625,4.192522285750626,8.062702809058994,-15.15751725912101,-4.664643942876637,2.844681056531141,1.5576993906321341,-0.30112303804693674,-12.81684996908083,0.3008826528513244,-0.8756858593010861,-5.724028353882326,-0.05213161866359442,4.967004622669499,-0.31929817302490826,5.672446906585009,12.774684554559288,3.3986340515626896,4.882718448400892,-13.29192475309134,-10.575773201472947,4.137869434974099,13.607020510683904,-7.223829881391059,-2.8708548542028156,0.8232171292659518,10.23888196460767,4.980429423638266,3.6354481504145832,-9.689986334672867,2.893575627768294,-4.3933182793120364,6.551801168903886,-3.600644357504875,3.450450821435985,0.7457570502048102,10.889599830648917,-10.89159821534006,1.5939856949093105,-7.175752906857606,2.3433998717254165,-6.732433428667412,-5.529192105936864,-0.24842427589503835,12.464148159953416,-10.1160786368446,-18.385214505765653,-13.50315213457877,8.108793451358453,11.742404025064015,1.9981103387667518,16.816027153388205,8.955726637319499,-4.306882365082217,-13.637503303317269,-10.648141986955658,3.138302387731692,-0.3666579688792652,-2.3166049470465775,-14.444419756474048,-0.5158818079821494,-24.95719643848561,-24.40865272021429,5.635460404462936,1.7384135743688705,-1.4362987619589878,-9.38937361278019,-5.47359620678303,3.9332443508845527,0.42052008041663713,-11.126290707646541,2.9372248770769724,2.0802015093287847,-17.870866016096677,-4.282459725655029,-5.9310294273956226,1.808557428916914,-6.693580362542873,9.005804731444103,5.116128808836509,-17.320694877676548,1.0717867877692806,-1.109539578236412,-1.067731851360547,2.0310712625991885,-0.771352002243877,10.428518180636027,8.379202056337586,2.707081076083488,-9.393394833008173,10.465882049782373,2.524084314611697,-7.71714347658947,0.7007686567714022,-7.070211055443902,7.053785197566971,1.3666566769917772,-10.57158055350989,-0.44433707578773285,0.7050159954383652,0.6421734797772491,-0.7880797645967382,4.335693067808436,-6.514828360002867,1.0992770624531183,0.5161000845557766,0.3377649051054323,0.8816265440665523,0.4872239094231825,7.844983610714591,0.828194661903199,-2.841428961549949,-0.442502612354466,-0.5692744513621157,0.12363371376441212,-0.9628681159172533,0.6505224582931155,-0.8494615805344694,2.4814215512964664,-0.9269885304173079,-9.181764891263475,0.54989562735806,-19.194651790502288],[-19.661978530958102,1.1427651376785828,-10.654961421485305,0.0957327635172711,6.579889294419264,17.395079965640154,-11.028722231186928,10.81097946424146,8.749263076666546,-10.023625898539096,0.9810834503091259,15.564670909876195,-2.152514925637157,-9.215259011900313,-3.6119439815907097,-5.477442869206639,-7.674560280634171,6.2455989123834,3.810830217863584,-0.8512712187794367,-0.12938685454110876,-8.306564184338725,1.491645726458789,-0.3237203531698952,-12.305292477162947,5.613064525134099,5.117161270482157,-1.0196295766270715,-5.076113436365854,1.9569211485619369,-12.22504034540644,-11.65590491725014,6.383474782058813,-29.363442769831376,1.4587740832569454,-8.197832932579477,4.447044200908221,9.987379927523047,9.38221211471505,-23.22053541380862,0.3354191401895945,5.002505791331109,3.501435971917126,2.609148001331602,1.3672833195934333,5.280711381813679,-8.433226614011973,12.338802854515995,-11.660540432457756,-0.9519288231211226,4.646653517193377,-5.247062559882197,2.611733970339214,-19.969160555475412,-13.639843121491513,-7.337103299074737,-1.5730550769447351,14.141406686307501,0.8782308495046518,2.3110161640869356,-15.930028807151798,1.3685037349155613,1.363981143640672,19.051487684562257,-1.2719726453737001,-5.6117389254357795,1.6068017220688813,17.715276772166,-22.15811530431491,5.693063893461256,17.547657945087547,4.214234793612353,-9.381733522786172,-32.34917346818636,-13.166286130279792,-7.597184042280477,-3.041035752746415,-19.230748429035682,8.373041680438853,-18.435539666890364,-6.2667691986982526,-5.034858361709923,-6.773772211603353,4.445174176583464,-5.871457383595441,6.824644530231086,11.78386949903693,-8.154857400763737,12.030883344389608,8.87358834793575,9.311864888445994,-0.6470685724518233,-6.239522875787216,-7.898172549074402,7.529774165135134,5.545986466853656,0.11339653217962442,-4.2266376038228595,-7.404965746188346,-1.7698070120157663,5.09208750416038,2.4049122692982774,-3.1899577621715656,-12.574120687184909,0.9577757386596643,9.318607584332934,27.756323378070505,3.5048725333627178,14.820370921556298,-6.985139016478106,-12.267962580151348,-10.90595163358417,2.170042106594261,1.7075345558128412,-0.8005192000201311,0.9740743137134453,-0.5898847240966882,-0.05513859298488122,12.914270316376376,7.428800910735689,-16.76882734446744,-0.2565599503996735,-24.700973884489656,-0.23302648962970895,-0.2258691398464996,-2.3846352631855536,0.12894904849444289,-6.014530860240003,-21.4548950472612,-0.32579277433765186,-0.9951765954440159,0.3943276959261395,0.25347664475137766,0.48078614018771404,2.489436774297978,-0.7764248544685473,6.549022800916116,8.114689907048616,5.360456245955431,7.427362180522118,2.4846792774901254,-2.405026475128837,12.523168283544644,-21.79686410164106,-5.422123562638217,-7.589930845380148,-0.9505548376067113,-1.2169633409076137,1.7937193714282713,-2.818033047009118,2.8220998358712333,1.7987219592783934,-12.85061764645422,2.587788366719221,9.33665881590945,6.951473986973852,-12.337684755024965,-0.8321388624504279,-8.880533262304446,-5.685786000345344,-2.9627451365318227,-0.1104264147556352,-1.6281931497122721,15.932061904077099,17.394491523392,-4.9720183909372215,19.456438625270504,-12.949954692586639,9.279038515719433,4.877555872410584,-17.86613296040176,8.317812191356357,-6.293201749142987,-1.9747684319820842,-10.914789238562498,-11.44448496390366,8.712691669147809,6.064802686230745,-0.7457862282998919,-11.242814125780482,-0.3703152024441037,-5.987898039953988,2.267330821870504,-12.832772323927129,1.1090606404115493,-8.318202241751758,-10.078870781368082,-11.182291901966272,-5.37749419657037,-0.0070192430414713685,-3.7422094657389597,-21.200220387316993,6.8613484950082935,-3.670969900519987,5.892732752303997,6.990765977104674,9.525393043310354,8.906790181979648,-6.238986012118137,1.2077958509577722,-5.074304140424757,-0.060924198258999106,1.4676790600960778,1.8083582208963447,-3.3569941524251083,32.093898888338344,12.246469240496776,-6.2303046878935175,0.6493541095992851,-12.540757051203204,-21.15260489537171,-12.800724871187265,-10.31225071071425,-5.117516162754638,-14.459866677737978,-1.8907922751482062,-19.69817929425544,9.195810433707255,-6.973343430589012,-6.405973352609163,-17.77733270170065,-0.5580061399563168,-2.7482747854145946,10.096812675906376,-0.8139395698317728,-6.508393605329183,-13.2531582784421,10.382995316071138,6.129183652750594,1.700747062816282,-11.383793443428273,10.389449771723221,2.6800758651344516,2.1404240323753454,-5.034890540088651,7.6614663764133,-9.684160371570886,3.8743561391062555,-12.18885666516519,0.659160240852428,13.402532563810373,-6.4294770290061605,-17.797828412099975,-9.769464428045964,-4.325817079565479,-5.257687881928773,21.176596040018083,0.11811361425886545,-0.824212486957419,14.077640046026497,4.5665657673902285,-10.140657891029372,-0.30654115715382046,0.5682280397676436,-0.6572048589052375,-0.4820452815998403,-19.377161655757696,3.6475775631753433,4.992344282630413,-0.3904331498046759,4.532815234889968,-0.1408815090089074,-0.2306516930961232,12.119650349316835,-0.6867560388058958,-0.9999209679770894,-6.636646634138836,0.40970034973688096,-0.2446795813907352,-0.38537876701573237,-0.35391859213294985,-0.5964022074787111,7.69746537426705,-9.507850305592815,14.56469814226208,-18.271549949578564,-31.606310558013753],[17.383882303616648,15.714721415787285,1.0686507095670552,-19.556352411085722,1.4684187211920243,11.513406081635935,-3.409268111907858,4.204623071970853,12.694054677414499,-24.465219913274876,7.579392225636624,-3.4983917489418728,-13.05834177995513,-7.6539693159812385,-0.7344347963432902,5.4587287924290235,18.564292058899717,4.44509187921711,-4.9510936202730385,-27.9670099216202,-13.047783610907754,-1.2011658569154762,-17.33803222584788,-0.36185022584565574,4.840396332193989,6.360412890959748,5.131849910022132,6.306477531486013,-26.534430760474507,-15.165513820108185,3.8469517657457812,-17.556589858741248,-10.728847581489616,-1.879163166014345,11.028924532034637,-1.8485326144806864,4.472642974819803,-1.888572351279568,9.047202224158934,10.119248410059221,15.715982332418013,8.189458667911973,14.865935827727467,-8.614994031732197,-2.9103304582426133,29.680290362950732,-11.191290213572298,21.60867268266939,18.07449551434947,20.088825611286634,5.520600488952368,-5.681153179116756,-14.950131782551999,16.460274693068726,0.7976577299166833,-3.5440329928360503,-17.194454287540186,-13.033416009847079,11.845050662855712,14.73583293397702,-14.876462676175645,2.4020259141241938,-23.271159798582005,-9.382157905007347,22.686382255837593,6.28097928784998,3.9371032689315695,5.955551323676448,-17.023103691621433,-8.972048785562482,-0.6605826412931816,13.313732422395,5.102894053193073,-10.130483182322102,-3.428828723734434,-18.28497713256308,3.98214391898532,9.819224526160953,4.414164953569312,10.543273155478019,-8.194551488439217,15.27746934436495,-10.551010891390312,0.8221804580310882,6.171568518381996,-9.722707201625461,3.4483216522972615,12.914575439108159,3.243719636325781,1.6332903627834396,-8.211593145928319,-15.827943418985353,-12.891800736762042,3.1034048192255854,-36.144038384359455,1.4591410477358344,-3.0971238094988216,11.449162634644775,-11.55573655369694,16.267586019019497,-43.432485017073205,-24.89416336022036,-14.4063328758139,-3.393974423351566,-8.233323034609487,-15.387080990111151,-4.126533110412479,-16.447476961883673,-21.35590444032194,1.4497075676509827,11.286143989503445,-11.738739496378725,-4.1584329054383025,-1.8847999794171748,0.9114290043332871,0.6999491354024525,0.7328324825373431,-0.5763309536718579,-9.310899733294601,3.042988183008158,-0.13539930789710097,0.15429049359838465,9.561641509601424,-0.8028320930549278,-0.739436529597406,3.0454544624930473,-0.11803651851969488,-4.108811369928922,18.79417754301952,0.7556816160360755,0.1919999552312912,0.6295199534697826,-0.7386264318193325,0.4759906325150023,-18.738364839990226,-3.819608156532814,-5.231752507054523,7.435153736306538,4.17937826209835,3.2409500610656026,-1.554831559339789,1.1969861006274432,12.381503873916746,11.830755189359826,-37.29740560672591,9.21824416522781,-4.488334595614932,8.94634573278662,-9.386256387750311,-16.48166450509486,-5.413411834162966,7.649788664290429,6.594997605337913,7.554101308082403,-2.5519281159949627,-11.00513624655422,-2.981515726564048,-14.66477845382112,2.2858354114107806,-1.970506864110727,5.687829221410452,0.8022271220891886,8.275025793170395,-4.875041252357799,7.381590531138482,-11.689671040809499,-28.662823302121346,7.455325840941968,-14.046549909323002,3.5449651520335443,17.16221107815666,-2.75535129581883,-4.997472515057197,-5.873082573118913,12.275409736833302,-21.62028043558238,-7.3584636026919314,22.326003308265552,4.319879289160052,10.265874495375108,18.35127119065837,7.212658811468649,2.1082971628931864,4.8080740258249515,-2.0231123103593798,10.662298515801181,10.145726259026683,-4.937900448413336,-5.355071756756501,3.9317467693065025,2.422263548742314,-9.957205700904192,0.9640893622920672,6.653760321588203,8.358018774188318,-13.100929198607979,-8.029277155847804,-4.224143392647397,18.016350816683275,-7.862836273993395,-5.32564328358817,1.4299193857858918,1.2141172439261034,9.952657189405853,4.219383957977288,-17.477528790154793,-25.87111863981355,-2.481160993425939,6.558969112988813,-2.6561242404144902,-17.313070239438474,8.260310539337775,2.831961826134448,2.879957986895818,-21.3058547664626,-6.1082896774065185,4.549296137918228,2.4825708573451095,-6.638851261453716,28.106366279918575,21.37330632236633,7.755318348565785,4.0010862565876115,-12.40261231392525,-22.73358807669406,6.594278735496976,-6.646224047854573,19.709780123657595,-3.1029098882747097,-7.7728840860001185,-13.061867711286459,1.6988552382801796,-33.29849091759507,-10.305594175234589,-13.483477224583499,-8.873448701786604,-10.482857243773948,0.12112537122363048,-12.000616493789007,-13.082121195224929,16.220237266671298,1.4249790136481135,1.469009588351599,-28.18655160592956,-18.992677486928418,15.401906146951351,26.373023911939182,-23.225667114436618,-11.967136584359057,-20.855153968648455,5.302572830985609,-20.342261887227938,-0.46001439000736,0.6330802521666918,-0.8262383124936963,-0.24574163068071775,22.165483137224566,8.397696755997824,4.987760315652179,-0.42339393792422153,-13.032893068915454,-0.3859332657512634,0.668171213341112,2.7899994023217998,0.5634407959000196,19.52080839740958,-28.129870419204373,-0.17513673370489713,0.5418420306172058,-0.21023178993707958,-0.26551400186077034,-0.1894684634644801,8.553516457680987,8.779868031873214,-9.330243415388981,-2.4276373145380443,-35.014543506297855],[-3.4302344929798285,5.716546900063196,1.0952069135067455,3.218352930076259,1.3650475752670166,13.272396673494843,-12.80328313853767,-3.1756099099722004,0.7681579081047217,-19.532128904012403,3.5391331258770133,-5.055443131232447,3.507524948080469,3.751033177274173,5.016543762994573,10.109193800308818,1.5712092182830848,-1.8791339358548524,9.511331655252551,-4.706688047617214,0.28848962704108844,8.496931889172517,-1.6249003303171505,-0.5539209642287941,-8.066398351944013,6.275108961835555,2.6224559319923624,3.049779537787068,2.2234307022238826,-7.266025603847394,-9.466391651788284,-7.973842683857468,-3.466507067764902,-5.902759649328223,-2.549162694723598,-14.108740935974195,11.205070424688977,14.109055071877755,0.24020358704216976,-12.792643076660704,-14.72357003712417,-4.39560271220325,-1.6085907768277965,-11.590451213546872,-13.482165191317987,7.145993893634545,-2.9002494290723333,10.121961846826414,-4.086520726648712,9.698895924246278,5.733160272053902,-18.254214776909713,0.5339703158795736,2.1347858769079386,-8.861208788680962,-0.28485346356356317,1.1203637149258534,-9.470156693187803,10.260641368846121,19.64487151360855,2.096711858244478,-13.252466219304466,-3.194641577376301,8.282367369796985,2.416034567653479,-14.78928150103656,3.9742595510785286,7.624136333043904,-6.269690479739199,-17.983725272376606,-10.888682049326604,5.052067313132294,5.503042744433229,-7.095106211382435,-6.168187018972431,-5.420210672365299,0.8356976329436852,-7.840036738877671,-13.957094921412363,8.977382635641874,-3.879319898364826,-8.076657709809618,-7.328433169457847,-1.8495398598054797,1.8645923499679493,6.437745820794158,18.186022182300665,-8.426318119271167,-1.0973172625750205,-7.204285147491626,-13.799821639229673,5.887017380008897,-3.337395385200465,15.898942611837152,-11.334447263369496,3.344003004228906,1.0479729740077899,-8.750012532719074,-9.84065146362805,5.090824604207583,-1.0522616141795194,-10.181203069179102,3.9237395019332073,-5.411068284448406,-4.173305152376935,9.393061463950293,-5.78084726421283,1.6133364853872725,9.649895113324707,-4.250064405598272,11.016691181242159,-12.91966115864324,1.8455094035839508,-11.421741498459603,-0.5209067592547598,-0.706038289055966,0.6848372554192828,0.1692715691906066,13.292458346582816,9.408435594720595,-0.7135372577038073,0.148929728552321,2.543767341562862,0.4937795188889835,-0.9621291238117801,-4.168651018041983,0.37432137479917293,14.446545523165673,-12.320268340901555,0.2199379877249561,-0.6336680323603094,-0.5814317649075464,0.3760553956686936,0.31781544487863567,-5.691566563956445,0.5300123273542889,-13.583968234948312,5.997902251216884,2.769754489879214,17.84917768814548,-10.829563488658922,1.9210880627543097,12.140955158733146,6.488273539983997,-3.2568324191979836,-5.886276357156279,-5.3073190304984115,5.795959276500061,5.171972408087458,5.206359985008436,-1.368830924183269,2.781921197621262,-9.509120363191625,-2.125542471606787,1.5333085555608899,7.269751854730292,-6.970205039216491,1.618916848259636,-2.7134699978450953,4.613998208863744,-4.175861707091917,0.47018109706262745,1.9446265774792924,8.692347279270617,-12.564350034065429,9.355113797119952,6.439288298127368,-1.0138602923757691,0.2937505063931666,-3.0984497842915375,1.8515736810129726,-23.97166719814371,-3.0836469266457183,-6.475859913757958,-12.110722049778955,-16.782408059979634,-5.460557355727467,3.0026545719069633,-9.909332235082976,-0.6800997653910652,15.098365623222765,8.25588563136939,14.672498832725333,-1.0262418981330315,3.3551960913452348,-27.42493859085419,-14.569252238079716,-3.2582014909958885,14.114121521726643,2.1789973813268624,7.399718429755356,1.6296935739471519,-3.5213929482198116,-15.055583164115875,-8.635245877664216,0.8757989215871663,-7.06788236327396,8.313937739925798,-9.20369910617915,-19.216933304644,-1.6061660995731242,-14.58006310393847,2.021951071999493,10.138840350829687,-2.3355141108285737,0.7810276614675002,-21.460373893835843,5.301552248973138,1.9669937539256366,3.6942240862027136,2.8549568406938874,2.037416565377674,-12.365549848565834,-3.37100774763427,2.8737464564206614,6.213491986622912,4.340289595055929,12.726850896062203,-11.927044933131091,23.791367571446692,-5.220180333703601,3.6960832309292795,-13.53165192901691,1.800767070861579,-8.379037163231947,0.4041891110805758,10.580678077954916,3.475072036646222,-6.682986639961786,-9.069631610171463,-1.2624437778121724,17.170754990057105,8.215599130755773,-6.704924868111957,1.7381928038611474,-24.253248426872943,-4.522168340384881,11.551907921462224,-10.097648139408559,-14.472601058992103,-9.086362610403661,3.4574905740717616,0.9732015734587395,-5.170198234483678,-5.205303418433065,-3.4424137880661605,0.20126715262378997,-7.151287576365935,2.8967891618330404,-11.997431504711237,-12.53203461849579,10.1305858173256,0.11569161775136916,0.19051116459409334,0.8013292369877292,-0.4712152919572754,2.7811913210663137,9.76335142678559,2.6451010675223965,0.0012338854375169017,-18.08458508771354,0.2723085477288818,-0.3774666445238173,4.845284810182139,-0.7781809675590201,-3.651153807189093,2.436163871042544,0.934121307194911,0.8775484991581115,0.5252422990543502,-0.8432809742427094,0.012787233444894852,1.5933792166806415,-5.329571526359632,5.792014219723736,9.27281739974137,-26.677780183858637],[5.507687183234081,-3.7126551738185856,16.031239045301305,0.14837856301749253,-1.7507835419773756,0.21547000055123822,0.9750153368158729,0.6977509526748515,-24.579267225549525,-20.92310413797454,1.0307852990863404,-2.368966678694514,-6.768183355371737,-12.547108789764446,-26.612618920268556,-11.539821696028852,-4.837964890557424,12.105151963790398,8.824510496367786,0.7128756943410961,5.005562763515984,-0.08504448130532817,-0.016195252777491037,-0.6116352199261932,-6.176468628050311,7.968995740598267,6.985165539195892,-1.7610125194286503,9.277096901147798,-3.268701054071355,-14.510537687150745,-5.693122313206371,0.7900866279706078,5.6443437413180995,-11.460231738970792,-25.70602079811094,-9.11662902744581,-5.830949520080531,-4.352165270761514,-17.22506039106257,-26.364417974530394,-7.949956409730197,-26.326548942573513,2.1413166214479755,0.10090614539973317,-11.515566539456032,-33.366704397503185,-15.03797729779391,7.510769626182635,12.917062136333533,1.0043153803092382,7.773111977619568,-1.614030403387998,7.249203435571878,-14.384615119009196,-10.235285871437874,14.719496319878797,-9.75973181873015,-4.883513536271413,0.7025373479453023,31.20590541184834,1.8577319960035468,11.271533348779041,0.6472162316269132,-1.9280714193410176,-6.425785978934542,4.078338772808881,-23.214911265523792,5.118256876169116,10.116260641586026,-44.58512715892342,-4.13694000161336,-8.888147961422453,3.4913307503823097,13.267824148413414,-9.735907623408973,17.00511000836959,-25.23010003744562,8.490037073454673,13.384856577792444,7.5383481633921745,9.532492369161934,-5.850409909705109,10.611491283484165,8.689898934058652,1.8429630843558171,-3.194428781492883,0.0074704855575769965,-5.592618912356151,-17.995703282438665,2.551104576324922,-14.471935157838015,10.406892855425422,4.297308526411376,0.6975892561492236,-13.512008353490963,10.289701475484883,-14.866666785009333,-3.092119440866638,6.555905995742293,2.4268290032049546,30.985452805190764,-7.185289014773857,7.787429134987936,-9.902178633497837,27.392144208371555,-7.6948044387061465,2.75779972706335,-0.20150456810929795,-11.958330834864364,-1.2827973883687318,30.762091999053993,12.253191469902614,-6.314237386437985,-0.2160500882207801,-0.7207587580462402,0.38093558627074575,0.1448387386047183,-1.1804717915569483,9.71878079304208,-15.807168371079916,-0.13289277786244835,11.047364306101398,-0.8636179557006275,-0.07825030643347464,-1.5952216502385002,-0.008459932323434671,-3.789499439128502,-1.5696029295428358,0.031100272631880976,0.4425249237506481,-0.33930053484979705,-0.9186043935041458,0.20759740978954988,7.463286028458871,24.941267858333926,-2.7513452782999295,6.001241239116787,-24.617592925938812,2.708313458802364,-9.860679075222844,1.9369316801234564,17.481339412330108,-4.4790439880720205,-8.489537172447848,-10.970801514637362,12.594685569417846,-15.961451733708124,-4.48256493049523,9.525241136415758,16.57928336540022,-0.8894845771064124,-14.674857913700727,-30.59357645294582,18.606245938864323,4.699309638969861,7.549500755197578,0.6520871805362907,-15.414288569049464,-7.324490521051535,10.70487302573777,0.5727715813742544,-16.640744488720898,7.531109015212116,-5.559301704347033,3.0746334956360086,20.730404687218442,11.637912063657168,18.448752514301884,-6.767210092444328,-19.560895914887155,0.5631022689136321,0.7852320993090796,-10.296334337836829,7.377195423266538,-1.206685829931168,7.27432999810751,-17.17259863770169,10.97876269030923,-8.682426721522804,-6.660202014090571,4.977114521005225,8.31070561661679,-3.527082152544782,3.761024691837012,9.064267735438474,5.1964152342834184,11.069203619665444,-12.310048914095116,-13.98482455670846,-13.417981689809551,0.37921827123637547,16.999850789672664,-2.9255349195889564,-23.2562824040826,-21.361924029546174,-3.5711363865321317,-19.45784889102665,1.1651958310518815,-20.999860590609117,0.022328405392018278,12.382389165066549,-1.1185191268349326,0.8390358660295907,-5.963263213285961,-5.074185213698162,-5.581357284445258,5.889642455226316,2.823920927484979,4.069366835125759,20.170570819309283,9.0612279734525,3.799052741899648,-1.9419601649112446,2.1514357543702927,-24.70636766770908,2.7217605646644336,-19.833664272753314,-22.513425917531183,14.5795678496026,6.800890591910744,8.801378705016226,3.7681119390082034,-9.672517730958612,2.7713964092266608,-0.5814994880769472,-7.930419147156136,2.162035183106545,1.8597314476559526,-6.841179325129059,4.149940986615957,13.393962040962043,8.9209558067733,-2.192679724678698,-1.1565050461384325,1.1289294287495706,-2.4040255379272346,2.8039045477992968,0.03177961228961655,10.732721446492704,-5.398410131688912,8.512621902364337,11.035053507985424,-15.349631207652989,-23.834671233460696,-13.114339256496091,-10.769005520953908,-3.510211328285183,11.9762507790804,2.1320644199339345,2.1929436819398838,-10.516520490149283,0.30890624279291656,-0.5737557361535615,0.17040676489261064,-0.5753335624487047,2.0121743485253263,22.24976802583363,3.2504727806373714,-0.9882577062784225,-0.15838021277930617,0.9567582418452723,-0.3343433036182608,4.737143119474389,0.701959101887663,-15.38748556462783,-0.6331619430847352,0.3174818300157185,-0.31940273128111063,0.0925872828474541,0.6693340818631908,-0.35150541535776303,-20.43321057672197,-10.707122080056692,2.128978563298443,2.9636231133286,-31.65633271233187],[6.125942202297303,-6.159774986623148,10.610712406877404,-7.4647038041310765,-0.768696393845818,12.293860815863782,9.337068362088607,6.949680379077789,3.077851066141453,5.179711078808601,-2.8594002492156627,4.691703309629198,-6.9940064986973685,-3.869628002045216,-5.595024594754232,-0.4751724102573689,3.2073374199657714,-2.9208176088951587,-0.12966475021480267,-6.173033937102195,-15.344157349283279,3.587797124428653,6.206698929749294,-0.8060965823737469,0.3012798039887343,0.7359154063638632,-4.720261366770964,-8.093999958214631,5.727382274631379,-2.745834702444998,5.652204971808387,-9.218880547723122,-6.509560524029808,-7.152029666245524,3.5904604379758487,-2.544016193644716,-1.4061981819148364,2.2841244119416144,-6.390629854653525,-17.266153870608903,4.452771412137317,-5.085740772156322,8.878434847481461,5.352055664553747,-8.002377062133714,1.0205440184024928,-0.7658221140184767,1.7882681113249983,-1.7114229799197502,5.355349661468833,-7.817474576939041,-15.47017181606643,1.3044990577241018,13.618278815261473,1.2330698952482462,2.524777005380125,13.28386490707312,2.563582475478149,1.0880086631201458,1.2054223734550435,-8.984121462760688,0.7053328158037607,-5.2642029585220556,-0.8729226567531947,-3.338469757109198,-1.970178249623953,0.4552094551319539,-13.132123895226515,-12.137718306569605,3.955340378280331,-1.8538718178856246,-15.458472283045387,9.190338874087002,-6.134720705662024,-0.6696279635292363,2.5330322056182686,4.107534980681713,7.79328480237777,4.239599142079641,0.8569023842946198,-9.332007893378062,11.227884470237697,-7.4399941210505025,-6.55773488204942,2.4409348942562215,-1.9484152812547535,-7.129209704121177,-0.33146250174470426,-10.62866736752905,-1.8456297296636381,-20.558952140044962,-1.7976195016049579,-2.704013768864689,-5.608601646179834,6.803457813999769,0.16810620536971857,0.3009215321667815,11.7877206138248,-5.99891843713857,5.722794629284147,-5.3281546932149855,0.032709406333504165,-1.772918550170806,3.915857850435231,-4.968549364262034,-2.381913419232975,-2.920718125005179,1.014081858427154,-4.625493647975547,5.263987276741899,-14.69767723110199,-8.493405177291157,6.585116554800624,-12.320075310626097,0.36311572459938923,0.7979597380371608,0.6892490128269921,0.2904035015353481,10.042717660235706,-1.086010886608412,1.8377899131575526,0.9310434502608795,12.304751738201345,0.4712486762370036,0.6391338369200332,-6.512002661653334,-0.033233225717566706,-2.2955015414155646,12.965548677063717,0.792371059414102,-0.1250162027181424,-0.9255604123320612,0.19842597471957668,-0.7760955449015137,0.6227622802025472,-7.093758845233054,1.6136963787186558,-4.680979604959848,1.1094799079456066,4.172127651946813,-1.1652295844876248,12.043946774832282,-3.8906564114278215,-14.29831964519226,6.403752291822364,-0.6502604914197969,1.3163388058891545,4.556958344099859,7.0823154008866345,-25.8177641863146,8.479797039062365,-4.287033741378644,-0.8691433818145075,8.60529242648479,-2.716480048008664,-0.2315462095046942,-1.8876043042939563,-13.289551743865518,-27.110719643500882,3.0157953399082222,10.400309030528364,-0.23350580096434903,2.0808631482614772,-2.040609200015332,-1.2059173845279105,0.428272320717534,-2.6848212436605974,1.4750302496104748,-2.1703937678183887,-8.461585813997065,-8.096076043724826,8.769447917020575,-0.6077287259092629,1.27974154323188,2.645566105141182,0.9106094410602952,-5.120967092606622,-1.6449886422435689,4.702148975903781,11.810647434546523,-4.278126133853247,-0.03854992983013602,8.199699486695998,-9.172961022867382,-14.505963937195279,-4.9963773142755095,-5.060265640206463,6.2549455195001595,-12.825869911977518,2.915107335150751,-3.488112075366733,4.16984572527176,0.049835423882372186,3.4039818883980058,0.6672817560624733,-1.9650882845095456,-2.310331534462429,-5.653917006291474,-4.688210371544092,-7.972430910924113,-13.3803813910619,6.966475908527143,13.58442495505638,-15.652114365465009,-1.1868342392138698,-2.0194822561893346,2.0246197111124182,-5.0072425297020455,-1.4020599673602312,-1.1695549952218902,5.549336691256234,3.2853291354059655,8.21664688784925,-4.12354886517565,1.2854039745975008,-2.239487901877514,-11.451975625489698,0.7719978199867131,3.3158189620634846,-3.750862634978156,6.291802434952337,0.13064742928111334,4.065766115212991,1.3879200391391333,2.8511385727207164,3.2516567968245047,-10.21869219543019,-1.5945542795401502,15.172701233660318,-1.5332447298496958,-12.387545413609041,-2.4124658640438836,1.5975678535697289,-0.2240471522436566,-15.543633393288845,9.537038043464044,-24.709021782145587,-1.7614964708235907,-7.186960534555765,13.96409498341467,2.556867251952683,3.9902670959384277,-5.417687427620393,-15.162701062177806,7.097660160873778,12.310457302491317,-7.991052309470684,-2.157056584565463,3.7797710442564716,-9.47470215385322,3.0090524600811666,-4.8125144428749325,-0.4383662005839486,-0.3922389885261759,0.17970980782378732,-0.5598923349995497,4.618122918231989,1.8373090996194545,-1.4771790806570202,0.8690090799487067,1.0315000843386428,-0.5712225120783129,0.9387611594499687,9.170498280737883,0.43290175220031957,8.871073798162906,-2.4473343086443693,0.6709568770634702,-0.5415356500734845,-0.1964002480968151,-0.4176427489955937,-0.5886640291128318,-10.43051787831853,-2.8245947515519445,6.307302668792368,0.8109929598057044,-23.1197749647207],[-0.38625615198706154,0.8978496582131281,0.2377378509521748,-0.018518246199889066,-0.5878665169915152,0.6642882159422119,-0.9550566238770989,0.4165307743970086,-0.022879026098526323,0.3339741010687738,-0.7808421594529547,0.04395134885235952,0.750263239869734,0.7545164843871768,0.4331270455810594,-0.8615979255860589,0.7546738332185206,-0.6633908716045251,-0.5085073987036299,-0.12131079606110362,0.43177693232117664,-0.30303886862010154,-0.9918098646564214,0.9897575820970939,0.7065615976349255,0.6560589483995651,-0.9593875850189353,0.30312005435426426,0.3875692676797735,0.07050623232014752,0.27749617826882167,-0.3838306725757473,0.4332761635877189,0.989100464741544,0.7178892015205351,0.364508025687202,0.8344883817115158,-0.34469074439184666,-0.21523754169931708,-0.4040225644915906,-0.10628096084291094,0.4819792669498446,-0.12092150030087134,-0.6075065992831992,0.49742787889798246,-0.9641189845252196,0.101509889582452,-0.5097814258243196,-0.4409646934841116,-0.72350545450984,0.2479980816571179,0.6703207380770964,-0.9894241671997517,0.8705224909812979,-0.2165280539508324,0.41972036291745685,0.054289056752149234,-0.5272362797871404,-0.854862623237383,-0.45689477355114605,0.3141889592403879,-0.018744755968023608,-0.661997578903984,0.9540761006489658,-0.7794783151320598,0.8113086036008794,-0.9141823731495209,-0.4754892711752694,0.4380186874189882,-0.4954543584287856,0.7140204159203642,0.7083258032439717,0.17985835794953142,0.6619660571761075,0.49196682034273476,-0.7358427647408549,0.1725085415270209,0.12379624734490213,0.8611623103089183,-0.48237751329418643,0.5973766478704463,-0.26373941369544895,0.21124988805910316,0.1032886426336117,0.7573143685936079,0.4898639062075878,-0.4105657498412071,-0.5277800201736107,-0.4708046649841646,0.10271208098077111,-0.5989310988225325,0.07474921981234828,0.399285302282157,-0.6058940168385458,0.33120084509432046,-0.19804844428455592,0.6257923162407397,-0.06377135422596636,0.8083070161441892,0.9152997700173473,0.7938079402315417,0.7559921085714181,-0.3262021126940543,-0.6209356507157417,-0.6086678531494171,-0.920502924449975,-0.24814817939299927,0.37047856562462456,0.35972110908608523,-0.40419181572636376,0.5427525618008222,-0.5252103237220338,-0.8286104682901875,-0.07017274590383993,-0.631272640917071,-0.5469380236361553,0.42560307446929446,-0.5463090229002382,0.7376155753177069,0.3697011505445176,-0.6278373104576935,-0.08515988418046827,0.9881918924879387,0.021084497171660832,0.9266534137540898,0.051717766959926914,-0.8615340582950463,0.31564724026586677,-0.5738666061112321,0.8410837320442848,0.9404870017701918,0.7845080896266412,0.07724996388952143,0.5127199986965401,0.355172641731196,0.10183121232188919,-0.050682475893520706,-0.5682527265129369,-0.2642359059009032,-0.7984639115532625,0.8571200250337943,0.37194201236413593,0.9490059344916708,-0.2312066439425382,-0.9196759516086795,-0.978213392244288,-0.8019242759074645,0.07749152357534639,0.4150363787074829,-0.25122200978966736,0.5390291637063693,-0.7429754709167374,0.9981295899272744,0.3977810757467555,0.2799664000177051,0.30590641472844515,-0.01908110914996408,0.3610712903777038,-0.30536863649232293,0.6133463220460733,-0.990045176479713,0.8183296616225082,-0.5078854176070935,-0.4744737555852767,0.6345587670610748,0.3024329850783678,-0.8003167170649229,-0.45428645552406033,0.5907258165006437,-0.7483221924047205,0.9163283570432721,-0.15877944682860512,0.5818303639158313,0.9822197643687955,0.9636344475223322,-0.10877174557318525,0.13031090363764708,-0.16059570300730375,-0.804654574561185,-0.2164219421024215,-0.6509447850421557,-0.8915681729458029,-0.6262865297212694,-0.22510022656649142,0.7541149968003977,-0.8007473827059527,-0.09891173953105736,0.579718449590152,-0.7219030988831383,0.8048532705052123,-0.16845503085564617,0.1251790587600985,0.34083761685557823,-0.4171125398698028,-0.6551984035366485,-0.27812883113671416,-0.6425745079246853,0.03827211014411036,-0.49855759200981187,-0.45262793595168727,0.1450978569634236,0.8783785912239919,0.34310966217249117,-0.39038446348727307,-0.3947062599160127,-0.5873107062755997,-0.24352099774144154,0.6917885370221002,0.3095540651121951,-0.9643411607273872,0.6734782486847359,0.3147405420459157,-0.7998981464030873,0.04434028374594079,-0.38375816998696577,0.9549067287581234,0.22969288259860487,0.9776468430483523,-0.32109010546652894,0.04415877774209043,0.21622214743663282,0.23605495041617397,0.5643362709679645,-0.903283966644415,-0.39198470831157806,0.39851101722784854,-0.3351215209404643,0.225866070112674,-0.5877826004042783,-0.4059983967210947,-0.8737926636292738,-0.5138246923355921,0.9916622441520933,0.4965548784907796,0.9649362539801911,-0.27814090245990764,-0.40745925971954344,-0.2480621090695001,0.5878858846485984,0.07120438063763435,0.5481153823144131,0.6084589185054086,0.9425091571836892,-0.945221164430005,-0.3825615658470828,-0.08948445228443136,-0.1083091402948555,-0.3516749594463999,-0.47389390971740464,0.9802107080657056,-0.9725820327689612,-0.3308625997819372,0.9954407734415454,0.015595591919001173,-0.13426408290684677,-0.847427966831209,-0.7946822269001053,-0.03881121110027441,-0.7448343195489078,0.7917953778523639,0.3773574935456394,-0.8437283308666295,0.025551316956433645,0.6349902760393771,-0.6341674594274105,0.2795961368454605,-0.22673659584260197,0.38313783023007164,0.6896046105053582,-0.5822258149294106,0.5238984357103327,0.06961272555857412,0.21357051147791495,0.3558867104279946,0.5270396645899458,0.4126925958985843,0.5893812316759579]],"WeightOutput":[[61.633799485437734,57.51662313376611,61.778275812422685,62.27029704699289,33.947857028044304,64.64231211002803,-72.96399527855522,67.62269214884097,-67.65591777809708,62.22485354903611,28.052615260909096,-62.52346138629543,38.38091639328712,-63.399510005516824,-1.7991959069558436]],"ErrOutput":[0],"ErrHidden":[0,0,0,0,0,0,0,0,0,0,0,0,0,0,0],"LastChangeHidden":[[4.290414907653648e-58,3.4701444935947733e-34,7.323657412075283e-115,1.702400123392298e-120,5.536355574008697e-63,-1.0461340416739439e-68,7.200455370866339e-44,3.4701444935947733e-34,1.556253174954946e-13,4.2930482942627365e-74,2.971622538476935e-70,1.5292870632045337e-112,1.1016183006597758e-47,1.5562531749549456e-13,1.32835417512592e-128,9.901437961188331e-107,-2.3981288288915705e-137,-2.519318465561562e-143,7.266684552814286e-191,1.1206571129561156e-76,3.4701444935947733e-34,7.20045537086638e-44,8.664025499994295e-81,0,-7.351502516732155e-11,-7.351502516732167e-11,5.78655123395142e-65,4.260486905623292e-29,-1.0405489274105468e-93,3.055814933109953e-14,1.2398090438878402e-72,4.260486905623292e-29,1.488597407600208e-118,5.536355574051627e-63,-7.335939984982617e-11,3.055814933109953e-14,-2.0409888519739653e-60,0,-6.473902727850595e-74,5.093610682940152e-56,7.200455370866339e-44,3.05581493312239e-14,0,-7.351502516732167e-11,-7.026319778512995e-98,3.274568609333918e-66,1.702400123392298e-120,3.055814933109953e-14,-7.351502516732167e-11,6.12437803863294e-38,4.260486905623292e-29,0,3.055814933109953e-14,-2.040988851973667e-60,0,6.12437803863294e-38,-5.5254796824786994e-142,-2.9016366917366204e-127,6.361748238551146e-134,1.5562531749549456e-13,1.1472809678666918e-42,3.4701444935947733e-34,7.200455370866339e-44,1.1016196037404767e-47,-2.9497880958913153e-72,1.1202053489356915e-61,1.2436870933453768e-25,1.3081743118071565e-53,3.285029949754691e-66,5.536355574008697e-63,4.364376352008541e-46,3.285029949754691e-66,-2.5043958600273043e-111,5.093610682940152e-56,4.3643763514991786e-46,1.3030807123262691e-53,4.05481951526335e-146,0,-1.0461340416739439e-68,5.165837145413288e-157,2.9716225360016927e-70,1.5004478644299284e-131,4.3643763514991786e-46,1.2398090438878402e-72,1.3030807011242164e-53,3.4701445050675837e-34,4.127107445249788e-247,1.2436870933453768e-25,-4.140132119376777e-255,6.12437803863294e-38,1.3430589268255318e-154,5.78655123395142e-65,6.12437803863294e-38,-7.135200341123817e-126,2.561884065701297e-79,-2.821740117360195e-72,-2.9497880958913153e-72,-2.9021830815537154e-190,6.12437803863294e-38,-4.86360936001653e-242,3.452708308098902e-85,2.9716225359150496e-70,0,6.685634118105793e-63,1.2436870933453768e-25,3.3195715229709546e-159,3.256898677776741e-122,1.1016183006597755e-47,0,1.4885974077119275e-118,1.149289005480335e-63,3.0180587438831403e-112,4.2604869056234076e-29,-6.473902727850587e-74,0,0,0,0,6.361748238551146e-134,-2.0409888519739653e-60,1.1472809678666918e-42,0,4.3643763514991786e-46,0,0,2.3090575603914265e-155,0,9.251810022326234e-136,9.601412271509254e-215,0,0,0,0,0,-3.2191103713966665e-153,1.2384971890275285e-124,6.1014852881066824e-127,1.5562531749549456e-13,-7.351502516732155e-11,2.9721847138126795e-70,-2.7817054636695646e-238,2.983100933387471e-73,1.120570472701115e-76,5.536355571186957e-63,-7.135200341123817e-126,4.3643763514991786e-46,1.1472809678666918e-42,2.9716225359150496e-70,1.5562531749549456e-13,4.290414907653648e-58,1.1413910301799913e-128,-7.351502516732167e-11,3.055814933109953e-14,6.210973425595193e-80,-5.234908483000476e-95,1.3030807011242164e-53,1.1016183006597755e-47,1.5562531749549456e-13,3.337232738778878e-123,4.3643763514991786e-46,1.120570472701115e-76,0,1.1492890066772143e-63,4.2604869056232995e-29,1.2436870933453768e-25,1.556253174956189e-13,-1.0461340416483247e-68,-7.351502516732167e-11,7.323657412075283e-115,1.5292870632045337e-112,-7.4348940706630975e-298,5.093610682940152e-56,6.12437803863294e-38,-2.0397784124291876e-60,4.290414907653648e-58,1.3118058277390663e-279,-7.351502516732155e-11,1.529287080228536e-112,3.285029949754691e-66,3.452707331398275e-85,9.624947618936953e-156,5.621778976300141e-74,4.290414907653649e-58,-2.0409888519739653e-60,4.474538181565156e-46,1.5562531749549456e-13,4.260486905623292e-29,1.1202053489356915e-61,1.4885974075977894e-118,3.0180587438831403e-112,-2.040930996625804e-60,5.536355574008697e-63,-2.005362385511673e-251,-2.3981288750604442e-137,-1.2103349474722297e-295,1.120570472701115e-76,7.200455370866339e-44,3.055814933109953e-14,0,5.344570875595763e-80,6.12437803863294e-38,-3.0145271231698207e-72,-4.140132119376777e-255,9.283823486229281e-163,3.055814933109953e-14,1.2398090438878402e-72,2.8391861935400204e-120,-6.473902727850595e-74,1.5562531749549456e-13,-2.3981288742195577e-137,7.323657412075283e-115,1.3030807011242164e-53,-2.047499333712501e-80,6.610009168907456e-121,2.705995858901263e-96,5.36353708625522e-158,7.200455370866339e-44,1.1755689046757802e-61,-6.4743041480252966e-74,0,2.9716225360016927e-70,1.2436870933453768e-25,-2.0009632922676782e-103,1.1413910301799913e-128,3.055814933109953e-14,3.4701444935947733e-34,-1.0461340416739439e-68,2.120178908863442e-153,9.901437961188331e-107,1.1472809678666918e-42,7.200455370866339e-44,4.260486905623292e-29,1.1202053489356915e-61,-7.351502516732167e-11,1.1016183006597755e-47,2.274997404795835e-159,4.290414907653659e-58,-7.364651206659028e-159,-3.0145271231698207e-72,4.2930482942627365e-74,7.356447077299023e-115,4.260486905623292e-29,1.1016183057533865e-47,1.303080701124215e-53,1.702400123392298e-120,0,5.093610682940152e-56,-2.047533860785815e-80,1.1472809678666918e-42,6.124492766729726e-38,1.5292870632045337e-112,3.470756931398638e-34,0,0,0,0,1.1202053489356915e-61,4.2930482942627365e-74,4.2605216131926064e-29,0,2.561884065701297e-79,0,0,5.279701629618086e-108,0,3.055814933109953e-14,3.4701444935947733e-34,0,0,0,0,0,2.329033439246268e-302,-2.545139129462115e-115,-1.2623117829259911e-127,1.2192855215753553e-42,-7.332884170049495e-11],[2.24505435149326e-75,6.397339320828737e-49,1.3603809658717036e-90,2.142566630919155e-121,2.2934202402889706e-98,-2.349561901251749e-62,7.161938980250705e-59,6.397339320828741e-49,5.0385884390380956e-17,6.79526902478968e-61,4.4955495311789985e-84,8.213254919444253e-154,1.403205172869419e-38,5.0383460203161424e-17,2.7441816579739177e-118,1.5395078835284414e-106,2.141401371056694e-121,4.865519808115385e-159,5.562135649581526e-177,1.871369573765873e-76,6.397339320828737e-49,7.161938948934587e-59,-1.4726382794809446e-111,0,2.331529761305207e-25,-5.79781443094329e-29,4.711219399165203e-40,2.4241872195273742e-21,-1.891693386916177e-111,2.2695697225751164e-36,4.843965463630944e-61,2.4241872195273742e-21,6.076102469584826e-104,-4.8951203409433405e-60,5.03834602031229e-17,2.2695697225751178e-36,-1.859353359164327e-68,0,-1.4713956598931e-48,4.3078800277006474e-66,7.161938980242811e-59,2.332109542770997e-25,2e-323,-5.797814430896177e-29,-7.152587537675183e-92,-5.599855344094609e-60,8.149822260520598e-127,2.2695697225751164e-36,-5.79781443094329e-29,2.131361440461033e-81,2.4241872195273742e-21,0,2.2836017743023394e-36,-1.7125003169837212e-63,0,2.1313607707890546e-81,-7.804959021748555e-146,-2.017059098056604e-124,5.605847598887251e-128,5.0383460203161424e-17,1.3763970377229908e-51,-8.316617278102264e-49,7.162361680578681e-59,1.403205172869419e-38,-1.4504663955242518e-86,8.392133499422967e-95,2.332109542748442e-25,-1.1873526843993128e-63,6.366248552644356e-71,1.5756885389194312e-97,1.9451268416739057e-29,6.366248558344548e-71,-7.193642513154122e-107,4.3078800277006474e-66,1.9451268416739057e-29,5.208211590253616e-64,1.1465036461292224e-129,0,-2.349561901251749e-62,2.1693135576324e-146,1.2302448024264608e-85,8.910771916725493e-115,1.9451268416739057e-29,4.843965463630944e-61,5.208211590231165e-64,6.41110329120597e-49,2.2097725316614e-257,2.3321095427483014e-25,-4.892923140122651e-262,2.1313607707890546e-81,9.483563218320055e-133,4.711219399165203e-40,2.131360772149436e-81,-9.605199614154838e-109,4.372525050936357e-84,-3.1308223998235116e-67,-1.4568117269579792e-86,-3.758700138589831e-226,2.1313607707890546e-81,-4.854330558305561e-265,7.895644096709481e-71,1.2302448024264608e-85,0,-2.34956190125172e-62,2.332109542748306e-25,3.027418025308942e-150,3.949196275899804e-130,1.403205172869419e-38,0,6.696572318350454e-88,6.79526902478968e-61,2.2552216964511925e-91,2.4241872195273742e-21,-1.4713956598931e-48,0,0,0,0,5.605847598887251e-128,-1.859353359164327e-68,1.3763970321483436e-51,0,1.9451268416739057e-29,0,0,2.1991894423657042e-160,0,5.318154191429596e-152,1.3082610921595814e-204,0,0,0,0,0,-6.205341992003061e-145,3.140458419898874e-139,5.112036812325376e-139,5.0383460203161424e-17,2.331529761305207e-25,4.227003358719188e-63,-5.459895438064259e-267,1.4746471999042914e-92,1.871369573765873e-76,-3.130822422274056e-67,-9.605199611410653e-109,1.9451268416739057e-29,1.3763970384025177e-51,1.2302448024264608e-85,5.0383460203161424e-17,1.871369573929626e-76,6.696572318350454e-88,-5.79781443094329e-29,2.270040844515033e-36,2.245054351476883e-75,-6.345331433727094e-89,5.208211590231165e-64,1.403205172869419e-38,5.0383460203161424e-17,6.654365924667518e-124,1.9451268416739057e-29,1.871369573765873e-76,0,4.843965463630944e-61,2.4241872195273742e-21,2.332304055432469e-25,5.038346043637237e-17,-2.349561901251749e-62,-5.79781443094329e-29,1.3603809658717036e-90,8.213254919444253e-154,-6.575102271153662e-293,4.3078800277006474e-66,2.2450564828376535e-75,4.711219399165203e-40,1.637535504459037e-86,0,2.331529761305207e-25,7.084826169350817e-127,6.366248552644356e-71,7.895644091009287e-71,4.865176651914969e-159,4.227003358719188e-63,4.227003358719188e-63,-1.859353359164327e-68,1.9451268430771107e-29,5.0383460203161424e-17,2.4241872195273742e-21,2.2560622561476474e-91,6.062800197486527e-104,2.2552216964511925e-91,4.711219399165203e-40,2.2552219257938222e-91,-7.998019648967943e-253,-1.1571100402017024e-124,-1.0610293309803857e-289,1.871369573765873e-76,7.161767732070461e-59,2.2695697225751164e-36,0,2.2450543514811255e-75,5.913329061415639e-80,-1.4713956598931e-48,-4.892923140122651e-262,3.946814001457084e-155,2.270040844515033e-36,4.843965463630944e-61,1.8600815130069769e-124,-1.4713956598931e-48,5.0383460203161424e-17,2.7441805008524257e-118,1.3603809658717036e-90,5.208211590231165e-64,-1.7124816444936887e-63,5.700192984336732e-80,6.810615411209645e-86,6.4319987637995815e-155,7.161938980242811e-59,1.871369573765873e-76,-1.4713956598986747e-48,0,1.2302448024264608e-85,2.332304055432474e-25,-2.4275326662396513e-114,6.696572318350454e-88,2.2695697225751164e-36,6.397339320828737e-49,-2.349561901251749e-62,1.1966333748995452e-165,1.5395078835284453e-106,1.3763970377229908e-51,7.161767732070461e-59,2.4241872195273742e-21,8.392133499422967e-95,-5.79781443094329e-29,1.403205172869419e-38,1.0766007347783506e-176,4.843965463630944e-61,-3.4315620041341387e-163,-1.4713956598931e-48,6.79526902478968e-61,9.181985511923977e-138,2.4241872195273742e-21,1.403205172869419e-38,-2.2974797853494364e-62,8.149822260567951e-127,0,4.3078800299456996e-66,-1.7124817234501293e-63,1.3763970377229908e-51,1.3763970377229908e-51,-6.205341983789805e-145,6.397339320828737e-49,0,0,0,0,8.392133499422967e-95,6.79526902478968e-61,2.4241872195273742e-21,0,4.372525050936357e-84,0,0,4.24206385280953e-87,0,2.2695697225751164e-36,6.397339320828737e-49,0,0,0,0,0,-1.43e-322,2.142558455426564e-121,-2.017059098056604e-124,1.376397109342381e-51,5.0385884623553375e-17],[2.0382129227797127e-38,1.7773203028041999e-65,1.1986166855180583e-108,4.452494563032896e-120,5.838308757614294e-91,-2.097650539643355e-80,8.80204740617489e-47,4.3517646317736244e-64,5.675210790849333e-22,7.040911649466392e-57,1.8271634984812658e-78,9.288916811085853e-137,6.019822571222792e-58,5.675210790849333e-22,1.1641657645919507e-118,1.566390364371461e-124,4.452494563032896e-120,-3.4069398612666915e-141,8.274757638338435e-183,1.5110693317231981e-66,1.7773190562167152e-65,2.03821293158176e-38,9.794552623786373e-88,0,6.492624154091238e-39,-5.801910819929655e-42,3.521789868530205e-63,2.1290156143720966e-58,-4.13053949003763e-108,4.0112483615682525e-15,2.4734151498939215e-71,2.1290156143718494e-58,2.3079655433836768e-107,7.040911649466392e-57,6.989752357515466e-19,4.0112483615682525e-15,-7.071824054786768e-89,0,-9.504945154445987e-53,1.0850120814848454e-76,8.80204740617489e-47,4.0112483615682525e-15,0,-5.801910819929655e-42,-1.0067787277379315e-105,-2.097614643078337e-80,5.937367797662423e-137,4.0112483615682525e-15,-5.801910819929655e-42,2.1827442234023566e-36,2.1290156159708173e-58,0,4.0112483615682525e-15,-2.425594440375594e-86,0,2.1827442234023566e-36,-1.862484753442215e-162,-3.3879394961777277e-124,1.8461286332113776e-118,5.675210790849333e-22,8.107572598643741e-39,-9.50494515444421e-53,8.80204740617489e-47,6.019818397189822e-58,-7.715562720850803e-83,1.2465874844394282e-71,6.498426064911168e-39,6.027871454343167e-74,3.831508763464395e-85,2.562667010478182e-84,6.984077146724618e-19,3.8315157349499825e-85,-1.1995620287704517e-135,1.0850121071115099e-76,6.984077146724618e-19,1.599093002887109e-67,9.37262390874767e-156,0,-2.097650539643355e-80,2.9920608483455576e-159,1.8259696282278204e-78,8.958095549520402e-122,6.984077146724618e-19,2.473415149894178e-71,6.0170213335307384e-74,8.107572598643741e-39,1.8598407556890712e-242,6.498426064911168e-39,-4.898408586635027e-263,2.1827442234023566e-36,3.8177726784772336e-145,3.521789868530205e-63,2.1827442234023566e-36,-4.950182724824121e-109,1.1923048341817086e-81,1.5989677424365308e-67,-7.715562720850803e-83,-3.0808447605453275e-201,2.1827442234023566e-36,-5.147367322276662e-256,5.419921031390597e-76,1.8259696272483657e-78,0,4.189143418867482e-64,6.498426064911168e-39,2.1501297785757547e-162,1.6897628891778814e-121,6.019818397189822e-58,0,2.307965614348766e-107,7.040912066869668e-57,9.561467842880871e-97,8.107572598643741e-39,-9.504945154445987e-53,0,0,0,0,1.8461286332113776e-118,-7.071824054786768e-89,8.107572598643741e-39,0,6.984077146724618e-19,0,0,9.947182881613328e-181,0,5.025079391777111e-156,2.949549170433464e-205,0,0,0,0,0,-1.4624574946193183e-144,6.199017010934919e-143,5.041246406667635e-152,5.675210790849333e-22,6.492624154091238e-39,1.8259711936471e-78,-5.702512500755569e-252,9.700278170491174e-98,1.5110693317231981e-66,5.834692333842602e-91,-4.950182724824121e-109,6.984077146724618e-19,8.107572598643741e-39,1.8259696272483657e-78,5.675210790849333e-22,2.0382129227797127e-38,7.096509642749113e-115,-5.801910819929655e-42,4.0112483615682525e-15,1.5989677424365308e-67,-8.583392902063245e-99,6.0170213335307384e-74,6.019818397189822e-58,5.675210790849333e-22,1.9009440145811014e-136,6.984077146724618e-19,1.5110693317231981e-66,0,4.174032972891764e-64,8.802047406196175e-47,6.984077146724618e-19,5.675210790849333e-22,-1.978420056225184e-80,-5.801910819929655e-42,1.1986166855181473e-108,9.288916811085853e-137,-7.89606237583643e-264,1.0850120814848454e-76,2.1827442234023566e-36,3.93919314108523e-63,2.0382129227797127e-38,6.734106446075597e-284,6.492624154091238e-39,2.647871926642288e-136,3.8315087634643094e-85,5.4199210057639266e-76,7.804623993919027e-160,1.0123864709540213e-91,2.0382129227797127e-38,-7.071824054786768e-89,6.984077146724618e-19,5.675210790849333e-22,2.1290156143718494e-58,1.2465874844396856e-71,2.3079655433836704e-107,9.561467842880871e-97,3.5217898685302066e-63,5.838318319082139e-91,-3.3903844535550107e-239,-3.2696300803415466e-139,5.51831113822952e-286,1.5110693317231981e-66,8.80204740617489e-47,4.0112483615682525e-15,0,1.5989677424365308e-67,2.1827442234023566e-36,-9.504945154445987e-53,-4.898408586635027e-263,4.027600597357521e-182,4.0112483615682525e-15,2.4734151498939215e-71,2.043443556392246e-148,-9.504945154445987e-53,5.675210790849333e-22,-3.176985196133952e-139,1.1986166855180583e-108,6.0170213335307384e-74,5.4199210055220734e-76,6.971485587196616e-91,2.9626324393699374e-97,1.7134239448298176e-146,8.80204740617489e-47,1.511081797598042e-66,-9.504945154445987e-53,0,1.8259696282278204e-78,6.984077146724618e-19,-3.04021702874912e-109,7.096509642749113e-115,4.0112483615682525e-15,4.3517646311719216e-64,-2.097650539643355e-80,1.0361327600803289e-165,4.452651202069335e-120,8.107572598643741e-39,8.80204740617489e-47,2.1290156143718494e-58,1.2465874844394282e-71,-5.801910819929655e-42,6.019818397189822e-58,2.2262669793467348e-166,2.0382129227797127e-38,-2.2849712174219352e-161,-9.504945154445987e-53,7.040911649466392e-57,1.6429623226036796e-113,-9.504923864289844e-53,6.019818397189822e-58,6.017019235880195e-74,5.937378390550128e-137,0,1.5989677435215437e-67,-2.418522616330507e-86,8.107572598643741e-39,2.1908517960009998e-36,9.288916664840094e-137,2.1827442234023566e-36,0,0,0,0,1.2465874844394282e-71,7.040911649466392e-57,2.2031263526301525e-36,0,1.1923048341817086e-81,0,0,8.583819472829285e-92,0,4.0112483615682525e-15,1.7773190562167152e-65,0,0,0,0,0,3.389164170857266e-299,4.452494562999271e-120,-3.3879394961777277e-124,8.107572686664215e-39,4.011947336804005e-15],[2.850095413987521e-56,1.9655498923726715e-41,2.503931058201871e-126,1.666099714935971e-116,1.5005340841768376e-82,-6.339327680729046e-101,1.800363418499794e-38,1.965549892401701e-41,2.633253975051935e-12,1.394365136759594e-83,6.716689975578545e-90,3.794560863413185e-142,2.7736543114603466e-44,2.633253975051935e-12,2.1765059849866804e-134,3.292796075710148e-103,1.666099714935971e-116,3.502627639195884e-166,9.660984516897154e-182,7.388367448208096e-73,1.9655498923694367e-41,1.800363418499794e-38,-6.12481033145932e-96,0,-3.141203686733666e-30,-3.1412037587814857e-30,4.529403560684326e-43,7.475922993648591e-44,-6.611496839020824e-96,7.722843788620833e-46,1.018995392951257e-96,7.475922993648591e-44,7.804443594828039e-101,1.6399705975218593e-82,2.633254009818765e-12,3.449768465194959e-21,-1.1808928327320233e-80,0,-1.6636638254539545e-73,4.296997009576301e-85,1.800363418499794e-38,7.204782110543997e-38,0,-3.1412037587810324e-30,-1.2196448919463988e-90,8.972824891611706e-82,6.4456722045017085e-137,7.722843788620833e-46,-3.1412037587814857e-30,8.108790722438997e-40,7.475922993651441e-44,0,2.8508827493465556e-44,-1.1808928328977974e-80,0,8.108790722438997e-40,-2.2826112026773303e-156,-4.9075309323284325e-118,2.55631538605836e-145,2.633253975051935e-12,3.449768465194959e-21,1.9655498923694367e-41,1.800363418499794e-38,2.773654343724482e-44,-3.0563027015850755e-80,3.2349746791994116e-53,7.204784806969873e-38,3.226413502378919e-52,8.969074093285799e-82,1.5005340841768376e-82,3.476682992369127e-20,8.969074105265751e-82,-1.4737038988627556e-121,4.296997009576373e-85,3.476682992369127e-20,3.550195956146872e-52,9.775282976425552e-138,0,-6.339327680729046e-101,2.7406461145146444e-171,1.1159589008665708e-91,1.9355836158757751e-119,3.476682992369127e-20,1.0193836198519957e-96,3.226413502378919e-52,3.449768465194959e-21,2.806464185615318e-245,7.204782033315558e-38,-8.400019594952421e-257,8.108790722438997e-40,1.273828766582645e-147,4.529403560684326e-43,8.108790722438997e-40,-1.4194031741720204e-124,6.605094647159325e-90,2.8498584801294007e-56,-3.0563027015850755e-80,-4.0138126169946565e-218,8.108790722438997e-40,-2.5100344435069815e-255,5.789425779340552e-90,1.1159532834117875e-91,0,7.388367449708631e-73,7.204827327351166e-38,3.7752321510202663e-172,3.2277265447019547e-103,2.7736543114603466e-44,0,3.750814903400794e-85,1.3943651334502225e-83,7.281731883125009e-114,3.449768465194959e-21,-1.6636638254539545e-73,0,0,0,0,2.5987726033681964e-145,-1.1808928327320233e-80,3.449768465194959e-21,0,3.476682992369127e-20,0,0,2.4163828498823653e-165,0,2.3500601710023594e-150,7.852129210579917e-224,0,0,0,0,0,-2.4450425370245368e-142,2.1171830192613115e-109,